/*!
 * The following copyright notice may not be removed under any circumstances.
 * 
 * Copyright:
 * Thit k bi Michael inh Kiên - "In God We Trust - Free for everyone" Email:
 * fontchudepc@gmail.com; www.fontchudep.com
 * 
 * Trademark:
 * Phát trin bi Thien Minh Co., Ltd - http://www.thienminh.vn
 */
Cufon.registerFont({"w":1341,"face":{"font-family":"UTM Avo","font-weight":400,"font-stretch":"normal","units-per-em":"2048","panose-1":"2 4 6 3 5 5 6 2 2 4","ascent":"1638","descent":"-410","x-height":"27","bbox":"-133 -2343.23 1945 455","underline-thickness":"109","underline-position":"-143","unicode-range":"U+0020-U+2026"},"glyphs":{" ":{"w":567},"!":{"d":"227,-395r0,-1121r152,0r0,1121r-152,0xm227,0r0,-258r152,0r0,258r-152,0","w":604},"\"":{"d":"534,-909r-117,0r-25,-607r166,0xm214,-909r-116,0r-25,-607r166,0","w":632},"#":{"d":"876,-956r-55,397r188,0r0,137r-207,0r-59,422r-141,0r59,-422r-254,0r-59,422r-142,0r60,-422r-199,0r0,-137r219,0r53,-395r-219,0r0,-140r240,0r59,-422r142,0r-60,422r254,0r60,-422r141,0r-60,422r170,0r0,138r-190,0xm483,-956r-56,397r252,0r56,-397r-252,0","w":1134},"$":{"d":"993,-457v4,207,-156,383,-348,398r0,202r-152,0r0,-202v-188,-20,-365,-190,-350,-408r152,0v0,189,93,283,280,283v177,0,266,-91,266,-273v0,-179,-116,-245,-286,-286v-207,-49,-369,-140,-369,-383v0,-205,100,-326,307,-363r0,-172r152,0r0,166v213,29,325,156,334,381r-152,0v0,-165,-85,-248,-256,-248v-155,0,-233,79,-233,236v1,163,121,213,266,249v228,57,384,169,389,420","w":1134},"%":{"d":"784,-1171v0,196,-173,366,-370,366v-198,0,-371,-170,-371,-366v0,-198,173,-367,371,-367v197,0,370,170,370,367xm422,0r-139,0r868,-1516r139,0xm1542,-340v0,198,-174,367,-371,367v-197,0,-370,-170,-370,-367v0,-197,174,-367,370,-367v198,0,371,169,371,367xm661,-1171v0,-136,-111,-252,-247,-252v-136,0,-248,116,-248,252v0,135,112,251,248,251v136,0,247,-116,247,-251xm1419,-340v0,-137,-112,-252,-248,-252v-135,0,-247,116,-247,252v0,136,112,252,247,252v136,0,248,-115,248,-252","w":1587},"&":{"d":"1021,-1188v-3,171,-148,298,-295,344r287,283r221,-426r170,0r-280,534r383,373r-109,105r-346,-338v-55,106,-116,186,-181,239v-80,66,-173,99,-280,99v-252,0,-484,-214,-477,-463v6,-234,159,-367,350,-451v-97,-97,-164,-168,-170,-317v-8,-186,175,-336,365,-336v190,0,366,166,362,354xm870,-1202v3,-112,-99,-197,-213,-197v-108,0,-213,85,-211,191v2,105,103,199,172,258v125,-46,249,-107,252,-252xm266,-430v-4,163,150,315,313,311v185,-4,288,-156,358,-303r-364,-358v-153,50,-302,174,-307,350","w":1550},"'":{"d":"344,-1118r-152,0r180,-398r152,0","w":718},"(":{"d":"248,-565v0,368,224,691,479,837r0,148v-84,-27,-169,-79,-256,-154v-250,-219,-375,-496,-375,-831v0,-335,124,-613,375,-832v86,-75,172,-126,256,-153r0,153v-251,143,-479,469,-479,832","w":755},")":{"d":"507,-565v0,-361,-229,-691,-479,-832r0,-153v84,27,170,78,256,153v251,219,375,497,375,832v0,335,-125,612,-375,831v-87,75,-172,127,-256,154r0,-148v255,-148,479,-468,479,-837","w":755},"*":{"d":"526,-1171r139,188r-96,70r-138,-193r-135,191r-96,-70r141,-189r-223,-69r37,-115r223,78r-2,-236r119,0r-4,238r223,-76r37,113","w":870},"+":{"d":"690,-449r0,449r-140,0r0,-449r-446,0r0,-139r446,0r0,-448r140,0r0,448r446,0r0,139r-446,0","w":1241},",":{"d":"180,137r-152,0r180,-395r152,0","w":567},"-":{"d":"61,-508r0,-137r557,0r0,137r-557,0","w":679,"k":{"o":-38,"Y":282,"X":178,"W":112,"V":120,"T":112,"O":-75,"J":-38,"G":-38,"C":-75,"A":36}},"\u2010":{"d":"61,-508r0,-137r557,0r0,137r-557,0","w":679},".":{"d":"208,0r0,-258r152,0r0,258r-152,0","w":567},"\/":{"d":"246,205r-156,0r573,-1721r162,0","w":894},"0":{"d":"567,-1542v302,0,508,209,508,547r0,442v6,352,-192,580,-508,580v-316,0,-508,-226,-508,-580r0,-442v-2,-340,207,-547,508,-547xm923,-575v0,-236,31,-518,-65,-674v-64,-105,-162,-156,-291,-156v-181,-1,-309,114,-341,295v-28,161,-11,353,-15,535v-2,117,17,236,57,303v65,107,165,161,299,161v188,-1,320,-112,345,-308v6,-48,11,-99,11,-156","w":1134},"1":{"d":"536,0r0,-1378r-260,0r0,-138r412,0r0,1516r-152,0","w":1134},"2":{"d":"93,-1026v1,-319,181,-516,488,-516v208,0,349,98,434,289v94,212,-14,424,-139,549v-26,26,-59,61,-103,102r-487,465r758,0r0,137r-963,0r0,-137r627,-603v90,-84,192,-218,192,-343v0,-172,-154,-322,-327,-322v-207,0,-331,165,-328,379r-152,0","w":1134},"3":{"d":"1036,-467v0,331,-318,591,-658,459v-185,-72,-299,-227,-309,-467r152,0v6,221,143,362,337,364v193,2,332,-151,326,-348v-6,-189,-145,-331,-346,-335r-88,-3r0,-133v185,19,334,-67,334,-235v0,-136,-100,-240,-236,-240v-137,0,-229,125,-227,268r-152,0v3,-224,159,-405,383,-405v215,0,388,173,383,389v-4,142,-63,210,-155,285v171,90,256,224,256,401","w":1134},"4":{"d":"943,-276r0,276r-151,0r0,-276r-764,0r0,-138r735,-1102r180,0r0,1102r138,0r0,138r-138,0xm792,-1307r-4,0r-586,893r590,0r0,-893","w":1134},"5":{"d":"1085,-502v0,339,-331,630,-690,496v-193,-72,-311,-236,-342,-471r152,0v16,197,162,366,366,366v200,0,363,-188,363,-391v0,-208,-157,-395,-361,-395v-122,0,-227,57,-315,172r-119,-43r137,-748r682,0r0,138r-561,0r-76,417v87,-47,173,-71,258,-71v282,0,506,246,506,530","w":1134},"6":{"d":"1085,-504v0,291,-228,531,-518,531v-382,0,-638,-407,-462,-774v36,-75,70,-127,126,-209r377,-557r172,0r-350,514r4,2v46,-22,93,-33,141,-33v285,0,510,239,510,526xm934,-502v0,-209,-160,-391,-367,-391v-208,0,-366,185,-366,395v0,207,162,387,366,387v210,0,367,-178,367,-391","w":1134},"7":{"d":"385,0r-160,0r625,-1378r-721,0r0,-138r877,0r0,138","w":1134},"8":{"d":"1050,-440v0,252,-229,467,-482,467v-254,0,-485,-215,-485,-467v0,-187,119,-354,260,-406v-119,-77,-178,-178,-178,-303v0,-219,182,-393,401,-393v220,0,402,179,402,399v0,132,-60,231,-180,297v175,83,262,219,262,406xm816,-1155v0,-133,-113,-250,-246,-250v-138,0,-254,112,-254,250v0,129,123,246,252,246v132,0,248,-114,248,-246xm898,-440v0,-180,-155,-328,-334,-328v-169,0,-329,153,-329,322v0,188,147,335,335,335v177,0,328,-153,328,-329","w":1134},"9":{"d":"567,-1540v382,0,638,407,462,774v-36,75,-71,127,-126,209r-377,557r-172,0r350,-514r-4,-2v-41,22,-88,33,-141,33v-285,0,-510,-239,-510,-527v0,-291,230,-530,518,-530xm934,-1016v0,-205,-163,-387,-367,-387v-209,0,-366,180,-366,391v0,211,159,391,366,391v207,0,367,-183,367,-395","w":1134},":":{"d":"208,-864r0,-258r152,0r0,258r-152,0xm208,0r0,-258r152,0r0,258r-152,0","w":567},";":{"d":"208,-864r0,-258r152,0r0,258r-152,0xm180,137r-152,0r180,-395r152,0","w":567},"<":{"d":"94,-455r0,-127r1040,-471r0,140r-870,395r870,395r0,139","w":1241},"=":{"d":"104,-655r0,-140r1032,0r0,140r-1032,0xm104,-242r0,-139r1032,0r0,139r-1032,0","w":1241},">":{"d":"106,16r0,-139r870,-395r-870,-395r0,-140r1040,471r0,127","w":1241},"?":{"d":"612,-1540v327,-10,589,354,407,653v-98,161,-317,251,-329,492r-151,0v-5,-268,201,-380,326,-532v163,-199,-28,-470,-259,-470v-150,0,-285,103,-317,249v-5,24,-6,61,-6,108r-152,0v-23,-287,219,-492,481,-500xm539,0r0,-258r151,0r0,258r-151,0","w":1210},"@":{"d":"942,-1542v471,0,801,380,676,872v-42,164,-168,351,-344,351v-105,0,-159,-55,-164,-164r-4,0v-67,109,-162,164,-283,164v-193,0,-319,-170,-319,-369v0,-236,171,-463,399,-463v133,0,217,61,254,182r4,0r29,-153r123,0r-98,544v-17,70,-6,149,63,144v165,-13,242,-239,244,-432v4,-341,-250,-561,-596,-561v-380,0,-670,292,-670,671v0,407,282,668,692,668v175,0,337,-34,488,-102r30,104v-284,139,-693,158,-964,8v-215,-119,-364,-343,-369,-663v-9,-460,347,-801,809,-801xm1116,-807v0,-125,-82,-229,-203,-229v-168,0,-286,168,-286,344v0,150,78,258,221,258v167,0,268,-191,268,-373","w":1775},"A":{"d":"1327,0r-220,-510r-704,0r-221,510r-158,0r647,-1516r170,0r651,1516r-165,0xm757,-1343r-297,696r588,0","w":1515,"k":{"\u010c":36,"y":73,"w":73,"v":112,"u":73,"t":36,"q":36,"f":36,"e":-38,"d":36,"Y":149,"X":112,"W":63,"V":112,"U":73,"T":188,"S":36,"Q":36,"O":36,"G":36,"C":36,"A":73,";":36,":":36,"-":45}},"B":{"d":"1114,-434v0,300,-214,434,-545,434r-418,0r0,-1516r381,0v292,2,496,126,496,404v0,153,-66,225,-166,305v168,69,252,193,252,373xm876,-1118v-4,-184,-158,-272,-371,-260r-202,0r0,516r257,-1v183,-1,320,-86,316,-255xm962,-434v0,-195,-174,-291,-398,-291r-261,0r0,588r285,-1v218,0,374,-89,374,-296","w":1175,"k":{"Y":83,"W":36,"V":36,"G":-38,"C":-38,"-":-57}},"C":{"d":"879,-111v241,-7,413,-129,530,-286r170,0v-154,283,-387,424,-698,424v-426,0,-793,-359,-793,-783v0,-431,359,-784,791,-784v294,0,576,175,694,414r-170,0v-124,-185,-300,-277,-527,-277v-334,0,-636,313,-636,649v0,331,309,652,639,643","w":1665,"k":{"Y":73,"S":36,"A":36}},"D":{"d":"1431,-754v0,435,-337,759,-838,754r-442,0r0,-1516r442,0v503,-2,838,315,838,762xm1279,-760v3,-347,-251,-601,-625,-615r-351,-3r0,1241r251,0v348,8,555,-109,665,-345v41,-88,60,-181,60,-278","w":1523,"k":{"Y":73,"V":36,"A":36}},"E":{"d":"143,0r0,-1516r829,0r0,138r-677,0r0,544r655,0r0,138r-655,0r0,559r677,0r0,137r-829,0","w":1097},"F":{"d":"295,-1378r0,549r591,0r0,137r-591,0r0,692r-152,0r0,-1516r766,0r0,138r-614,0","w":993,"k":{"\u00be":120,"y":73,"u":92,"r":92,"o":102,"i":73,"e":102,"a":120,"T":-38,"A":112,";":83,":":83,".":253,",":253}},"G":{"d":"233,-756v0,353,313,645,667,645v284,0,562,-211,613,-448r-846,0r0,-137r1028,0v-20,393,-385,723,-801,723v-424,0,-813,-365,-813,-785v0,-425,383,-784,811,-784v250,0,456,93,619,278v44,49,77,100,98,152r-176,0v-88,-161,-303,-289,-539,-293v-351,-6,-661,299,-661,649","w":1785,"k":{"Y":112,"W":36,"T":36,"A":36,"-":-47}},"H":{"d":"1091,0r0,-711r-784,0r0,711r-152,0r0,-1516r152,0r0,668r784,0r0,-668r151,0r0,1516r-151,0","w":1398,"k":{";":36,":":36}},"I":{"d":"155,0r0,-1516r152,0r0,1516r-152,0","w":462},"J":{"d":"426,-111v195,1,245,-150,245,-364r0,-1041r152,0r-1,1107v0,274,-146,436,-398,436v-230,0,-405,-166,-412,-387r150,0v11,166,99,249,264,249","w":987,"k":{"A":36,"-":36}},"K":{"d":"1019,0r-506,-657r-196,241r0,416r-152,0r0,-1516r152,0r0,871r4,0r694,-871r194,0r-600,740r600,776r-190,0","w":1210,"k":{"\u00be":36,"y":112,"u":149,"o":73,"e":36,"a":36,"Y":112,"W":112,"U":73,"T":36,"O":112,"C":112,"A":73,"-":215}},"L":{"d":"167,0r0,-1516r152,0r0,1379r626,0r0,137r-778,0","w":946,"k":{"y":73,"u":36,"Y":149,"W":73,"V":112,"U":36,"T":149,"A":36}},"M":{"d":"1574,0r0,-1350r-4,0r-567,1350r-129,0r-563,-1350r-4,0r0,1350r-152,0r0,-1516r233,0r551,1291r553,-1291r234,0r0,1516r-152,0","w":1882},"N":{"d":"1208,0r-899,-1333r-4,0r0,1333r-152,0r0,-1516r205,0r846,1258r4,0r0,-1258r151,0r0,1516r-151,0","w":1515},"O":{"d":"1692,-758v0,422,-379,785,-803,785v-417,0,-801,-362,-801,-777v0,-429,370,-792,801,-792v425,0,803,362,803,784xm1540,-756v0,-346,-305,-649,-651,-649v-350,0,-649,306,-649,655v0,339,309,639,649,639v345,0,651,-300,651,-645","w":1779,"k":{"Y":73,"X":73,"V":73,"A":36,".":83,"-":-57,",":83}},"P":{"d":"1154,-1063v0,261,-194,441,-477,450v-29,1,-63,3,-102,3r-270,0r0,610r-152,0r0,-1516r422,0v166,-1,294,23,391,89v125,85,188,207,188,364xm1003,-1063v0,-191,-151,-316,-368,-315r-330,0r0,630r330,0v216,1,368,-124,368,-315","w":1212,"k":{"\u00be":120,"u":73,"s":73,"r":36,"o":102,"e":92,"a":120,"A":112,".":301,"-":45,",":301}},"Q":{"d":"898,-1542v450,0,815,349,815,797v0,213,-83,397,-250,552v67,57,142,84,226,82r0,138v-129,0,-242,-44,-338,-131v-132,87,-284,131,-455,131v-430,0,-815,-353,-815,-779v0,-441,372,-790,817,-790xm1562,-750v9,-356,-305,-655,-662,-655v-416,0,-768,385,-641,834v105,-35,211,-52,320,-52v353,2,569,154,774,332v115,-112,204,-261,209,-459xm1234,-209r-102,-80v-149,-122,-344,-196,-576,-196v-89,0,-168,14,-235,43v19,39,49,78,88,120v130,140,294,211,491,211v130,0,241,-33,334,-98","w":1783},"R":{"d":"1171,-1026v0,255,-203,450,-450,461r428,565r-191,0r-514,-686v109,-1,252,1,326,-23v166,-53,250,-158,250,-321v0,-239,-187,-359,-461,-348r-264,0r0,1378r-152,0r0,-1516r477,2v335,4,551,193,551,488","w":1243,"k":{"y":36,"u":36,"o":36,"e":36,"Y":149,"V":36,"T":36,"A":73,";":73,":":73,"-":55}},"S":{"d":"969,-418v5,244,-212,445,-457,445v-267,0,-468,-186,-467,-451r152,0v9,209,114,313,315,313v166,0,307,-137,305,-301v-3,-193,-165,-275,-338,-323v-119,-33,-202,-65,-277,-125v-78,-63,-116,-156,-116,-275v0,-231,194,-407,426,-407v230,0,426,184,420,412r-152,0v4,-145,-124,-275,-268,-275v-149,0,-274,115,-274,264v0,186,198,240,360,285v212,60,366,193,371,438","w":1019,"k":{"G":-38,"C":-38,"A":73}},"T":{"d":"512,-1378r0,1378r-152,0r0,-1378r-348,0r0,-138r846,0r0,138r-346,0","w":872,"k":{"\u00be":188,"y":149,"w":149,"u":167,"s":225,"r":36,"o":188,"i":73,"e":188,"c":225,"a":188,"A":188,";":131,":":131,".":225,"-":149,",":225}},"U":{"d":"669,27v-325,0,-516,-234,-516,-598r0,-945r152,0r0,945v0,103,17,212,51,274v69,124,172,186,313,186v233,0,365,-188,365,-460r0,-945r151,0r0,945v6,365,-192,598,-516,598","k":{"A":112}},"V":{"d":"790,0r-149,0r-625,-1516r168,0r534,1328r537,-1328r164,0","w":1437,"k":{"\u00be":159,"y":112,"u":149,"o":131,"i":73,"e":167,"a":159,"O":36,"A":112,";":178,":":178,".":339,"-":131,",":339}},"W":{"d":"1511,0r-193,0r-333,-1243r-5,0r-331,1243r-195,0r-432,-1516r156,0r370,1321r4,0r361,-1321r141,0r363,1319r4,0r370,-1319r154,0","w":1966,"k":{"\u00be":120,"y":112,"u":131,"r":92,"o":112,"i":112,"e":131,"a":120,"A":73,";":120,":":120,".":292,"-":159,",":292}},"X":{"d":"1052,0r-426,-647r-432,647r-178,0r514,-774r-485,-742r178,0r403,607r400,-607r176,0r-488,742r519,774r-181,0","w":1247,"k":{"e":73,"T":73,"O":73,"C":36,"A":73,"-":178}},"Y":{"d":"680,-506r0,506r-152,0r0,-506r-526,-1010r168,0r432,850r444,-850r166,0","w":1212,"k":{"\u00be":188,"u":188,"o":188,"i":112,"e":225,"a":188,"O":73,"C":36,"A":188,";":215,":":215,".":272,"-":282,",":272}},"Z":{"d":"24,0r0,-137r745,-1241r-722,0r0,-138r892,0r0,138r-743,1241r766,0r0,137r-938,0","w":983},"[":{"d":"424,-225v2,253,83,352,266,438r0,154v-279,-77,-418,-265,-418,-566r0,-774v-9,-285,168,-498,418,-569r0,153v-177,77,-266,216,-266,416r0,748","w":718},"\\":{"d":"821,205r-580,-1721r162,0r573,1721r-155,0","w":1239},"]":{"d":"28,-1542v248,69,418,285,418,569r0,774v0,301,-139,489,-418,566r0,-154v183,-86,266,-184,266,-438r0,-748v0,-200,-89,-339,-266,-416r0,-153","w":718},"^":{"d":"989,-629r-371,-737r-365,737r-145,0r446,-887r132,0r446,887r-143,0","w":1241},"_":{"d":"0,256r0,-102r1024,0r0,102r-1024,0","w":1024},"`":{"d":"374,-1118r-180,-398r152,0r180,398r-152,0","w":718},"a":{"d":"86,-563v0,-325,277,-586,602,-586v195,0,341,75,436,225r4,0r0,-196r144,0r0,1120r-144,0r0,-197r-4,0v-99,149,-244,224,-436,224v-329,0,-602,-262,-602,-590xm1137,-559v0,-246,-204,-461,-449,-461v-260,0,-459,203,-459,463v0,256,202,455,459,455v245,0,449,-211,449,-457","w":1398},"b":{"d":"1325,-563v0,329,-274,590,-602,590v-189,0,-334,-75,-437,-224r-4,0r0,197r-143,0r0,-1516r143,0r0,592r4,0v105,-150,251,-225,437,-225v326,0,602,262,602,586xm1181,-557v0,-260,-198,-463,-458,-463v-245,0,-449,215,-449,461v0,246,204,457,449,457v257,0,458,-199,458,-455","w":1396},"c":{"d":"226,-563v0,254,209,461,463,461v185,0,316,-76,395,-228r158,0v-121,238,-306,357,-557,357v-325,0,-602,-263,-602,-586v0,-319,282,-595,602,-590v268,5,480,162,557,367r-158,0v-83,-159,-215,-238,-395,-238v-251,0,-463,207,-463,457","w":1325},"d":{"d":"79,-563v0,-325,277,-586,602,-586v190,0,335,74,436,221r4,0r0,-588r144,0r0,1516r-144,0r0,-197r-4,0v-100,149,-245,224,-436,224v-329,0,-602,-262,-602,-590xm1130,-559v0,-246,-204,-461,-449,-461v-260,0,-459,203,-459,463v0,256,202,455,459,455v245,0,449,-211,449,-457","w":1402},"e":{"d":"659,-1149v327,0,616,292,585,641r-1020,0v2,210,218,409,435,406v189,-3,351,-118,401,-265r152,0v-70,213,-285,390,-551,394v-313,5,-584,-271,-584,-586v0,-313,271,-590,582,-590xm1099,-637v-30,-207,-208,-383,-438,-383v-228,0,-409,177,-437,383r875,0","w":1331,"k":{"x":36}},"f":{"d":"355,-991r0,991r-143,0r0,-991r-174,0r0,-129r174,0v-1,-288,139,-422,430,-422r0,133v-194,0,-290,96,-287,289r287,0r0,129r-287,0","w":643,"k":{".":36,",":36}},"g":{"d":"75,-555v0,-318,268,-594,586,-594v189,0,333,76,432,229r4,0r0,-200r143,0r0,944v2,182,-24,306,-102,409v-105,138,-253,207,-445,207v-294,-1,-508,-171,-573,-411r152,0v75,188,214,282,419,282v247,0,409,-168,406,-417r0,-99r-4,0v-68,135,-236,228,-432,232v-317,6,-586,-267,-586,-582xm1105,-559v0,-242,-203,-461,-444,-461v-242,0,-443,216,-443,461v0,243,202,457,443,457v238,0,444,-216,444,-457","w":1378},"h":{"d":"618,-1149v310,0,493,218,493,533r0,616r-143,0r0,-616v5,-239,-135,-404,-350,-404v-211,0,-349,158,-349,393r0,627r-143,0r0,-1516r143,0r0,539r4,0v74,-115,189,-172,345,-172","w":1249},"i":{"d":"133,-1257r0,-259r143,0r0,259r-143,0xm133,0r0,-1120r143,0r0,1120r-143,0","w":409},"j":{"d":"137,-1257r0,-259r144,0r0,259r-144,0xm-90,252v179,-4,227,-135,227,-330r0,-1042r144,0r0,1067v1,182,-30,271,-123,356v-66,59,-149,88,-248,90r0,-141","w":415},"k":{"d":"835,0r-368,-442r-181,229r0,213r-143,0r0,-1516r143,0r0,1080r4,0r523,-684r184,0r-442,565r465,555r-185,0","w":1028,"k":{"\u00be":36,"y":36,"u":36,"o":73,"e":36,"a":36}},"l":{"d":"133,0r0,-1516r143,0r0,1516r-143,0","w":409},"m":{"d":"1337,-1149v275,0,449,203,449,483r0,666r-144,0r0,-649v2,-218,-100,-371,-305,-371v-205,0,-305,155,-305,371r0,649r-143,0r0,-649v2,-217,-100,-371,-305,-371v-206,0,-306,154,-306,371r0,649r-143,0r0,-1120r143,0r0,129v67,-105,169,-158,306,-158v171,0,296,72,376,215v90,-143,216,-215,377,-215","w":1921},"n":{"d":"625,-1149v310,0,493,218,493,533r0,616r-143,0r0,-616v5,-239,-135,-404,-350,-404v-211,0,-349,158,-349,393r0,627r-143,0r0,-1120r143,0r0,143r4,0v74,-115,189,-172,345,-172","w":1249},"o":{"d":"1257,-561v0,312,-275,588,-587,588v-306,0,-584,-275,-584,-580v0,-316,269,-596,584,-596v310,0,587,278,587,588xm1114,-567v0,-238,-205,-453,-442,-453v-243,0,-443,219,-443,465v0,239,205,453,443,453v247,0,442,-215,442,-465","k":{"x":36,"-":-38}},"p":{"d":"1317,-563v0,329,-274,590,-602,590v-189,0,-334,-75,-437,-224r-4,0r0,590r-143,0r0,-1513r143,0r0,196r4,0v106,-150,252,-225,437,-225v326,0,602,262,602,586xm1173,-557v0,-260,-198,-463,-458,-463v-245,0,-449,215,-449,461v0,246,204,457,449,457v257,0,458,-199,458,-455","w":1396},"q":{"d":"75,-563v0,-325,277,-586,602,-586v194,0,339,75,436,225r4,0r0,-196r144,0r0,1513r-144,0r0,-590r-4,0v-97,149,-242,224,-436,224v-329,0,-602,-262,-602,-590xm1126,-559v0,-246,-204,-461,-449,-461v-260,0,-459,203,-459,463v0,256,202,455,459,455v245,0,449,-211,449,-457","w":1396},"r":{"d":"596,-997v-213,17,-320,131,-320,342r0,655r-143,0r0,-1120r143,0r0,162r4,0v58,-127,141,-178,316,-191r0,152","w":616,"k":{"y":-75,"w":-38,"v":-38,"u":-38,"r":-38,"n":-38,"m":-38,"h":36,"f":-38,".":131,"-":36,",":131}},"s":{"d":"82,-838v0,-179,139,-311,319,-311v168,0,309,137,305,305r-143,0v-7,-117,-63,-176,-168,-176v-113,0,-170,56,-170,168v0,169,240,186,356,253v97,56,164,145,164,284v0,228,-117,342,-352,342v-200,0,-353,-152,-344,-359r143,0v3,153,70,230,201,230v139,0,209,-67,209,-201v0,-228,-318,-215,-439,-335v-52,-52,-81,-116,-81,-200","w":794},"t":{"d":"407,-991r0,991r-143,0r0,-991r-236,0r0,-129r236,0r0,-396r143,0r0,396r268,0r0,129r-268,0","w":694},"u":{"d":"269,-504v-1,253,101,399,340,402v165,2,294,-111,333,-245v14,-48,22,-108,22,-181r0,-592r143,0r0,1120r-135,0r0,-174r-4,0v-55,120,-189,201,-359,201v-307,0,-483,-192,-483,-529r0,-618r143,0r0,616","w":1245},"v":{"d":"645,0r-158,0r-473,-1120r154,0r395,942r401,-942r154,0","w":1134,"k":{";":36,":":36,".":196,",":196}},"w":{"d":"1251,0r-162,0r-238,-745r-4,0r-233,745r-162,0r-426,-1120r150,0r352,938r4,0r256,-803r125,0r258,803r4,0r356,-938r148,0","w":1701,"k":{";":36,":":36,".":188,",":188}},"x":{"d":"788,0r-297,-449r-297,449r-170,0r383,-569r-383,-551r172,0r295,432r293,-432r174,0r-383,551r383,569r-170,0","w":983,"k":{"o":36,"e":36,"c":36}},"y":{"d":"421,393r-149,0r194,-430r-436,-1083r152,0r356,893r381,-893r151,0","w":1097,"k":{".":178,"-":36,",":178}},"z":{"d":"20,0r0,-125r621,-866r-601,0r0,-129r773,0r0,129r-615,862r651,0r0,129r-829,0","w":870},"{":{"d":"477,88v-1,92,22,176,98,176r103,0r0,123r-136,0v-137,3,-217,-125,-217,-268r0,-373v2,-122,-71,-241,-182,-244r0,-131v107,-1,182,-128,182,-245r0,-373v-2,-145,80,-271,217,-269r136,0r0,123r-103,0v-75,1,-98,84,-98,176r0,375v1,128,-75,252,-178,275r0,6v114,27,178,130,178,274r0,375","w":718},"|":{"d":"612,455r0,-2048r152,0r0,2048r-152,0","w":1376},"}":{"d":"392,-874v-2,118,75,244,183,245r0,131v-112,3,-183,123,-183,244r0,373v3,144,-80,271,-217,268r-135,0r0,-123r102,0v77,-1,99,-84,99,-176r0,-375v0,-144,62,-247,178,-274r0,-6v-103,-23,-178,-146,-178,-275r0,-375v1,-93,-23,-176,-99,-176r-102,0r0,-123r135,0v136,-2,217,124,217,269r0,373","w":718},"~":{"d":"393,-522v-90,0,-136,74,-172,155r-74,-102v82,-155,201,-209,377,-153v88,28,210,124,315,124v82,0,142,-94,180,-155r74,102v-73,102,-123,176,-256,176v-165,0,-278,-147,-444,-147","w":1241},"\u00a8":{"w":1024},"\u00a9":{"d":"1547,-758v0,419,-362,783,-781,783v-421,0,-784,-362,-784,-783v0,-421,363,-782,784,-782v420,0,781,362,781,782xm1434,-758v0,-363,-307,-678,-670,-678v-363,0,-669,314,-669,678v0,364,307,678,669,678v363,0,670,-314,670,-678xm449,-760v0,212,121,363,328,363v157,0,250,-69,280,-207r113,0v-15,176,-198,311,-393,311v-261,0,-441,-201,-441,-467v0,-265,180,-467,441,-467v196,0,379,135,393,312r-113,0v-30,-138,-123,-207,-280,-207v-207,0,-328,150,-328,362","w":1529},"\u00ae":{"d":"1547,-758v0,419,-362,783,-781,783v-421,0,-784,-362,-784,-783v0,-421,363,-782,784,-782v420,0,781,362,781,782xm1434,-758v0,-363,-307,-678,-670,-678v-363,0,-669,314,-669,678v0,364,307,678,669,678v363,0,670,-314,670,-678xm816,-1198v178,-2,308,79,307,244v0,118,-55,190,-166,217r0,4v110,34,142,84,149,223v4,72,2,166,29,207r-113,0v-22,-34,-24,-106,-26,-166v-7,-175,-48,-213,-230,-213r-223,0r0,379r-112,0r0,-895r385,0xm1010,-948v2,-193,-275,-138,-467,-146r0,310r238,0v132,1,228,-45,229,-164","w":1529},"\u00b4":{"w":1024},"\u00b6":{"d":"93,-1086v-1,-215,169,-349,393,-349r443,0r0,70r-127,0r0,1365r-82,0r0,-1365r-166,0r0,1365r-84,0r0,-738v-216,-6,-376,-136,-377,-348","w":1024},"\u00bc":{"w":1298},"\u00bd":{"w":1320},"\u00be":{"w":1288,"k":{"x":36}},"\u00c0":{"d":"1327,0r-220,-510r-704,0r-221,510r-158,0r647,-1516r170,0r651,1516r-165,0xm757,-1343r-297,696r588,0xm917,-1602r-406,-219r66,-123r408,224","w":1515},"\u00c1":{"d":"1327,0r-220,-510r-704,0r-221,510r-158,0r647,-1516r170,0r651,1516r-165,0xm757,-1343r-297,696r588,0xm602,-1602r-68,-118r408,-224r65,123","w":1515},"\u1ea2":{"d":"1327,0r-220,-510r-704,0r-221,510r-158,0r647,-1516r170,0r651,1516r-165,0xm757,-1343r-297,696r588,0xm769,-2082v168,-8,280,194,162,316v-46,48,-98,72,-98,171r-127,0v-11,-123,76,-173,132,-242v46,-57,-9,-147,-71,-142v-62,5,-98,45,-89,137r-129,0v-15,-142,90,-234,220,-240","w":1515},"\u00c3":{"d":"1327,0r-220,-510r-704,0r-221,510r-158,0r647,-1516r170,0r651,1516r-165,0xm757,-1343r-297,696r588,0xm1111,-1726v-119,92,-229,98,-359,37v-38,-18,-90,-42,-138,-42v-48,0,-94,21,-137,62r-72,-103v104,-112,280,-95,402,-28v49,27,114,40,169,9r62,-36","w":1515},"\u1ea0":{"d":"1327,0r-220,-510r-704,0r-221,510r-158,0r647,-1516r170,0r651,1516r-165,0xm757,-1343r-297,696r588,0xm682,385r0,-259r152,0r0,259r-152,0","w":1515},"\u00c2":{"d":"1327,0r-220,-510r-704,0r-221,510r-158,0r647,-1516r170,0r651,1516r-165,0xm757,-1343r-297,696r588,0xm937,-1642r-176,-150r-180,150r-186,0r297,-256r135,0r293,256r-183,0","w":1515},"\u1ea6":{"d":"1327,0r-220,-510r-704,0r-221,510r-158,0r647,-1516r170,0r651,1516r-165,0xm757,-1343r-297,696r588,0xm1007,-1863r-406,-219r66,-123r408,224xm937,-1642r-176,-150r-180,150r-186,0r297,-256r135,0r293,256r-183,0","w":1515},"\u1ea4":{"d":"1327,0r-220,-510r-704,0r-221,510r-158,0r647,-1516r170,0r651,1516r-165,0xm757,-1343r-297,696r588,0xm1004,-1803r-68,-118r408,-224r65,123xm937,-1642r-176,-150r-180,150r-186,0r297,-256r135,0r293,256r-183,0","w":1515},"\u1ea8":{"d":"1327,0r-220,-510r-704,0r-221,510r-158,0r647,-1516r170,0r651,1516r-165,0xm757,-1343r-297,696r588,0xm990,-2333v168,-8,280,194,162,316v-46,48,-98,72,-98,171r-127,0v-11,-123,76,-173,132,-242v46,-57,-9,-147,-71,-142v-62,5,-98,45,-89,137r-129,0v-15,-142,90,-234,220,-240xm937,-1642r-176,-150r-180,150r-186,0r297,-256r135,0r293,256r-183,0","w":1515},"\u1eaa":{"d":"1327,0r-220,-510r-704,0r-221,510r-158,0r647,-1516r170,0r651,1516r-165,0xm757,-1343r-297,696r588,0xm1221,-1987v-119,92,-229,98,-359,37v-38,-18,-90,-42,-138,-42v-48,0,-94,21,-137,62r-72,-103v104,-112,280,-95,402,-28v49,27,114,40,169,9r62,-36xm937,-1642r-176,-150r-180,150r-186,0r297,-256r135,0r293,256r-183,0","w":1515},"\u1eac":{"d":"1327,0r-220,-510r-704,0r-221,510r-158,0r647,-1516r170,0r651,1516r-165,0xm757,-1343r-297,696r588,0xm682,385r0,-259r152,0r0,259r-152,0xm937,-1642r-176,-150r-180,150r-186,0r297,-256r135,0r293,256r-183,0","w":1515},"\u0102":{"d":"1327,0r-220,-510r-704,0r-221,510r-158,0r647,-1516r170,0r651,1516r-165,0xm757,-1343r-297,696r588,0xm757,-1729v100,0,184,-35,225,-94r134,0v-50,136,-173,211,-359,211v-184,0,-308,-73,-356,-211r133,0v46,63,120,94,223,94","w":1515},"\u1eb0":{"d":"1327,0r-220,-510r-704,0r-221,510r-158,0r647,-1516r170,0r651,1516r-165,0xm757,-1343r-297,696r588,0xm856,-1863r-406,-219r66,-123r408,224xm758,-1729v100,0,183,-35,225,-94r133,0v-48,137,-174,211,-358,211v-186,0,-307,-74,-357,-211r134,0v46,63,120,94,223,94","w":1515},"\u1eae":{"d":"1327,0r-220,-510r-704,0r-221,510r-158,0r647,-1516r170,0r651,1516r-165,0xm757,-1343r-297,696r588,0xm773,-1803r-68,-118r408,-224r65,123xm758,-1729v100,0,183,-35,225,-94r133,0v-48,137,-174,211,-358,211v-186,0,-307,-74,-357,-211r134,0v46,63,120,94,223,94","w":1515},"\u1eb2":{"d":"1327,0r-220,-510r-704,0r-221,510r-158,0r647,-1516r170,0r651,1516r-165,0xm757,-1343r-297,696r588,0xm769,-2333v168,-8,280,194,162,316v-46,48,-98,72,-98,171r-127,0v-11,-123,76,-173,132,-242v46,-57,-9,-147,-71,-142v-62,5,-98,45,-89,137r-129,0v-15,-142,90,-234,220,-240xm758,-1729v100,0,183,-35,225,-94r133,0v-48,137,-174,211,-358,211v-186,0,-307,-74,-357,-211r134,0v46,63,120,94,223,94","w":1515},"\u1eb4":{"d":"1327,0r-220,-510r-704,0r-221,510r-158,0r647,-1516r170,0r651,1516r-165,0xm757,-1343r-297,696r588,0xm1221,-1987v-119,92,-229,98,-359,37v-38,-18,-90,-42,-138,-42v-48,0,-94,21,-137,62r-72,-103v104,-112,280,-95,402,-28v49,27,114,40,169,9r62,-36xm758,-1729v100,0,183,-35,225,-94r133,0v-48,137,-174,211,-358,211v-186,0,-307,-74,-357,-211r134,0v46,63,120,94,223,94","w":1515},"\u1eb6":{"d":"1327,0r-220,-510r-704,0r-221,510r-158,0r647,-1516r170,0r651,1516r-165,0xm757,-1343r-297,696r588,0xm682,385r0,-259r152,0r0,259r-152,0xm758,-1729v100,0,183,-35,225,-94r133,0v-48,137,-174,211,-358,211v-186,0,-307,-74,-357,-211r134,0v46,63,120,94,223,94","w":1515},"\u00c8":{"d":"143,0r0,-1516r829,0r0,138r-677,0r0,544r655,0r0,138r-655,0r0,559r677,0r0,137r-829,0xm708,-1602r-405,-219r65,-123r408,224","w":1097},"\u00c9":{"d":"143,0r0,-1516r829,0r0,138r-677,0r0,544r655,0r0,138r-655,0r0,559r677,0r0,137r-829,0xm393,-1602r-68,-118r408,-224r65,123","w":1097},"\u1eba":{"d":"143,0r0,-1516r829,0r0,138r-677,0r0,544r655,0r0,138r-655,0r0,559r677,0r0,137r-829,0xm559,-2082v168,-8,280,194,162,316v-46,48,-98,72,-98,171r-127,0v-11,-123,76,-173,132,-242v46,-57,-9,-147,-71,-142v-62,5,-98,45,-89,137r-129,0v-15,-142,90,-234,220,-240","w":1097},"\u1ebc":{"d":"143,0r0,-1516r829,0r0,138r-677,0r0,544r655,0r0,138r-655,0r0,559r677,0r0,137r-829,0xm930,-1726v-119,92,-229,98,-359,37v-38,-18,-90,-42,-138,-42v-48,0,-94,21,-137,62r-72,-103v104,-112,280,-95,402,-28v49,27,114,40,169,9r62,-36","w":1097},"\u1eb8":{"d":"143,0r0,-1516r829,0r0,138r-677,0r0,544r655,0r0,138r-655,0r0,559r677,0r0,137r-829,0xm482,385r0,-259r152,0r0,259r-152,0","w":1097},"\u00ca":{"d":"143,0r0,-1516r829,0r0,138r-677,0r0,544r655,0r0,138r-655,0r0,559r677,0r0,137r-829,0xm729,-1642r-176,-150r-181,150r-186,0r297,-256r135,0r293,256r-182,0","w":1097},"\u1ec0":{"d":"143,0r0,-1516r829,0r0,138r-677,0r0,544r655,0r0,138r-655,0r0,559r677,0r0,137r-829,0xm779,-1853r-405,-219r65,-123r408,224xm729,-1642r-176,-150r-181,150r-186,0r297,-256r135,0r293,256r-182,0","w":1097},"\u1ebe":{"d":"143,0r0,-1516r829,0r0,138r-677,0r0,544r655,0r0,138r-655,0r0,559r677,0r0,137r-829,0xm814,-1793r-68,-118r408,-224r65,123xm729,-1642r-176,-150r-181,150r-186,0r297,-256r135,0r293,256r-182,0","w":1097},"\u1ec2":{"d":"143,0r0,-1516r829,0r0,138r-677,0r0,544r655,0r0,138r-655,0r0,559r677,0r0,137r-829,0xm789,-2333v168,-8,280,194,162,316v-46,48,-98,72,-98,171r-127,0v-11,-123,76,-173,132,-242v46,-57,-9,-147,-71,-142v-62,5,-98,45,-89,137r-129,0v-15,-142,90,-234,220,-240xm729,-1642r-176,-150r-181,150r-186,0r297,-256r135,0r293,256r-182,0","w":1097},"\u1ec4":{"d":"143,0r0,-1516r829,0r0,138r-677,0r0,544r655,0r0,138r-655,0r0,559r677,0r0,137r-829,0xm1001,-1977v-119,92,-229,98,-359,37v-38,-18,-90,-42,-138,-42v-48,0,-94,21,-137,62r-72,-103v104,-112,280,-95,402,-28v49,27,114,40,169,9r62,-36xm729,-1642r-176,-150r-181,150r-186,0r297,-256r135,0r293,256r-182,0","w":1097},"\u1ec6":{"d":"143,0r0,-1516r829,0r0,138r-677,0r0,544r655,0r0,138r-655,0r0,559r677,0r0,137r-829,0xm482,385r0,-259r152,0r0,259r-152,0xm729,-1642r-176,-150r-181,150r-186,0r297,-256r135,0r293,256r-182,0","w":1097},"\u00cc":{"d":"156,0r0,-1516r151,0r0,1516r-151,0xm310,-1602r-406,-219r66,-123r407,224","w":462},"\u00cd":{"d":"156,0r0,-1516r151,0r0,1516r-151,0xm156,-1602r-68,-118r408,-224r65,123","w":462},"\u1ec8":{"d":"155,0r0,-1516r151,0r0,1516r-151,0xm237,-2082v168,-8,280,194,162,316v-46,48,-98,72,-98,171r-127,0v-11,-123,76,-173,132,-242v46,-57,-9,-147,-71,-142v-62,5,-98,45,-89,137r-129,0v-15,-142,90,-234,220,-240","w":462},"\u0128":{"d":"155,0r0,-1516r151,0r0,1516r-151,0xm597,-1726v-119,92,-229,98,-359,37v-38,-18,-90,-42,-138,-42v-48,0,-94,21,-137,62r-72,-103v104,-112,280,-95,402,-28v49,27,114,40,169,9r62,-36","w":462},"\u1eca":{"d":"155,0r0,-1516r152,0r0,1516r-152,0xm160,385r0,-259r152,0r0,259r-152,0","w":462},"\u00d2":{"d":"1692,-758v0,422,-379,785,-803,785v-417,0,-801,-362,-801,-777v0,-429,370,-792,801,-792v425,0,803,362,803,784xm1540,-756v0,-346,-305,-649,-651,-649v-350,0,-649,306,-649,655v0,339,309,639,649,639v345,0,651,-300,651,-645xm1051,-1602r-406,-219r66,-123r407,224","w":1779},"\u00d3":{"d":"1692,-758v0,422,-379,785,-803,785v-417,0,-801,-362,-801,-777v0,-429,370,-792,801,-792v425,0,803,362,803,784xm1540,-756v0,-346,-305,-649,-651,-649v-350,0,-649,306,-649,655v0,339,309,639,649,639v345,0,651,-300,651,-645xm815,-1602r-68,-118r408,-224r66,123","w":1779},"\u1ece":{"d":"1692,-758v0,422,-379,785,-803,785v-417,0,-801,-362,-801,-777v0,-429,370,-792,801,-792v425,0,803,362,803,784xm1540,-756v0,-346,-305,-649,-651,-649v-350,0,-649,306,-649,655v0,339,309,639,649,639v345,0,651,-300,651,-645xm893,-2082v168,-8,280,194,162,316v-46,48,-98,72,-98,171r-127,0v-11,-123,76,-173,132,-242v46,-57,-9,-147,-71,-142v-62,5,-98,45,-89,137r-129,0v-15,-142,90,-234,220,-240","w":1779},"\u00d5":{"d":"1692,-758v0,422,-379,785,-803,785v-417,0,-801,-362,-801,-777v0,-429,370,-792,801,-792v425,0,803,362,803,784xm1540,-756v0,-346,-305,-649,-651,-649v-350,0,-649,306,-649,655v0,339,309,639,649,639v345,0,651,-300,651,-645xm1243,-1726v-120,92,-230,98,-360,37v-39,-18,-88,-42,-138,-42v-48,0,-94,21,-137,62r-71,-103v103,-112,279,-95,401,-28v49,27,114,42,170,9r61,-36","w":1779},"\u1ecc":{"d":"1692,-758v0,422,-379,785,-803,785v-417,0,-801,-362,-801,-777v0,-429,370,-792,801,-792v425,0,803,362,803,784xm1540,-756v0,-346,-305,-649,-651,-649v-350,0,-649,306,-649,655v0,339,309,639,649,639v345,0,651,-300,651,-645xm814,385r0,-259r152,0r0,259r-152,0","w":1779},"\u00d4":{"d":"1692,-758v0,422,-379,785,-803,785v-417,0,-801,-362,-801,-777v0,-429,370,-792,801,-792v425,0,803,362,803,784xm1540,-756v0,-346,-305,-649,-651,-649v-350,0,-649,306,-649,655v0,339,309,639,649,639v345,0,651,-300,651,-645xm1071,-1642r-176,-150r-180,150r-187,0r297,-256r135,0r293,256r-182,0","w":1779},"\u1ed2":{"d":"1692,-758v0,422,-379,785,-803,785v-417,0,-801,-362,-801,-777v0,-429,370,-792,801,-792v425,0,803,362,803,784xm1540,-756v0,-346,-305,-649,-651,-649v-350,0,-649,306,-649,655v0,339,309,639,649,639v345,0,651,-300,651,-645xm1121,-1863r-406,-219r66,-123r407,224xm1071,-1642r-176,-150r-180,150r-187,0r297,-256r136,0r292,256r-182,0","w":1779},"\u1ed0":{"d":"1692,-758v0,422,-379,785,-803,785v-417,0,-801,-362,-801,-777v0,-429,370,-792,801,-792v425,0,803,362,803,784xm1540,-756v0,-346,-305,-649,-651,-649v-350,0,-649,306,-649,655v0,339,309,639,649,639v345,0,651,-300,651,-645xm1157,-1773r-68,-118r408,-224r66,123xm1071,-1642r-176,-150r-180,150r-187,0r297,-256r136,0r292,256r-182,0","w":1779},"\u1ed4":{"d":"1692,-758v0,422,-379,785,-803,785v-417,0,-801,-362,-801,-777v0,-429,370,-792,801,-792v425,0,803,362,803,784xm1540,-756v0,-346,-305,-649,-651,-649v-350,0,-649,306,-649,655v0,339,309,639,649,639v345,0,651,-300,651,-645xm1124,-2343v168,-8,280,194,162,316v-46,48,-98,72,-98,171r-127,0v-11,-123,76,-173,132,-242v46,-57,-9,-147,-71,-142v-62,5,-98,45,-89,137r-129,0v-15,-142,90,-234,220,-240xm1071,-1642r-176,-150r-180,150r-187,0r297,-256r135,0r293,256r-182,0","w":1779},"\u1ed6":{"d":"1692,-758v0,422,-379,785,-803,785v-417,0,-801,-362,-801,-777v0,-429,370,-792,801,-792v425,0,803,362,803,784xm1540,-756v0,-346,-305,-649,-651,-649v-350,0,-649,306,-649,655v0,339,309,639,649,639v345,0,651,-300,651,-645xm1354,-1997v-120,92,-230,98,-360,37v-39,-18,-88,-42,-138,-42v-48,0,-94,21,-137,62r-71,-103v103,-112,279,-95,401,-28v49,27,114,42,170,9r61,-36xm1071,-1642r-176,-150r-180,150r-187,0r297,-256r136,0r292,256r-182,0","w":1779},"\u1ed8":{"d":"1692,-758v0,422,-379,785,-803,785v-417,0,-801,-362,-801,-777v0,-429,370,-792,801,-792v425,0,803,362,803,784xm1540,-756v0,-346,-305,-649,-651,-649v-350,0,-649,306,-649,655v0,339,309,639,649,639v345,0,651,-300,651,-645xm814,385r0,-259r152,0r0,259r-152,0xm1071,-1642r-176,-150r-180,150r-187,0r297,-256r135,0r293,256r-182,0","w":1779},"\u00d9":{"d":"669,27v-325,0,-516,-234,-516,-598r0,-945r152,0r0,945v0,103,17,212,51,274v69,124,172,186,313,186v233,0,365,-188,365,-460r0,-945r151,0r0,945v6,365,-192,598,-516,598xm790,-1602r-406,-219r66,-123r408,224"},"\u00da":{"d":"669,27v-325,0,-516,-234,-516,-598r0,-945r152,0r0,945v0,103,17,212,51,274v69,124,172,186,313,186v233,0,365,-188,365,-460r0,-945r151,0r0,945v6,365,-192,598,-516,598xm554,-1602r-67,-118r407,-224r66,123"},"\u1ee6":{"d":"669,27v-325,0,-516,-234,-516,-598r0,-945r152,0r0,945v0,103,17,212,51,274v69,124,172,186,313,186v233,0,365,-188,365,-460r0,-945r151,0r0,945v6,365,-192,598,-516,598xm662,-2082v168,-8,280,194,162,316v-46,48,-98,72,-98,171r-127,0v-11,-123,76,-173,132,-242v46,-57,-9,-147,-71,-142v-62,5,-98,45,-89,137r-129,0v-15,-142,90,-234,220,-240"},"\u0168":{"d":"669,27v-325,0,-516,-234,-516,-598r0,-945r152,0r0,945v0,103,17,212,51,274v69,124,172,186,313,186v233,0,365,-188,365,-460r0,-945r151,0r0,945v6,365,-192,598,-516,598xm1012,-1726v-120,92,-230,98,-360,37v-39,-18,-88,-42,-138,-42v-48,0,-94,21,-137,62r-71,-103v103,-112,279,-95,401,-28v49,27,114,42,170,9r61,-36"},"\u1ee4":{"d":"669,27v-325,0,-516,-234,-516,-598r0,-945r152,0r0,945v0,103,17,212,51,274v69,124,172,186,313,186v233,0,365,-188,365,-460r0,-945r151,0r0,945v6,365,-192,598,-516,598xm593,385r0,-259r152,0r0,259r-152,0"},"\u01af":{"d":"1352,-1544v-16,113,-82,157,-167,200r0,773v4,363,-191,598,-516,598v-324,0,-516,-233,-516,-598r0,-945r151,0r0,945v-1,103,17,213,51,274v69,124,173,186,314,186v232,0,364,-186,364,-460r0,-945r152,0r0,36v25,-19,40,-43,43,-70r-65,0r0,-180r189,0r0,186"},"\u1eea":{"d":"790,-1602r-406,-219r66,-123r408,224xm1353,-1544v-16,113,-82,157,-167,200r0,773v4,363,-191,598,-516,598v-324,0,-516,-233,-516,-598r0,-945r151,0r0,945v-1,103,17,213,51,274v69,124,173,186,314,186v232,0,364,-186,364,-460r0,-945r152,0r0,36v25,-19,40,-43,43,-70r-65,0r0,-180r189,0r0,186"},"\u1ee8":{"d":"554,-1602r-67,-118r407,-224r66,123xm1353,-1544v-16,113,-82,157,-167,200r0,773v4,363,-191,598,-516,598v-324,0,-516,-233,-516,-598r0,-945r151,0r0,945v-1,103,17,213,51,274v69,124,173,186,314,186v232,0,364,-186,364,-460r0,-945r152,0r0,36v25,-19,40,-43,43,-70r-65,0r0,-180r189,0r0,186"},"\u1eec":{"d":"661,-2082v168,-8,280,194,162,316v-46,48,-98,72,-98,171r-127,0v-11,-123,76,-173,132,-242v46,-57,-9,-147,-71,-142v-62,5,-98,45,-89,137r-129,0v-15,-142,90,-234,220,-240xm1352,-1544v-16,113,-82,157,-167,200r0,773v4,363,-191,598,-516,598v-324,0,-516,-233,-516,-598r0,-945r151,0r0,945v-1,103,17,213,51,274v69,124,173,186,314,186v232,0,364,-186,364,-460r0,-945r152,0r0,36v25,-19,40,-43,43,-70r-65,0r0,-180r189,0r0,186"},"\u1eee":{"d":"1012,-1726v-120,92,-230,98,-360,37v-39,-18,-88,-42,-138,-42v-48,0,-94,21,-137,62r-71,-103v103,-112,279,-95,401,-28v49,27,114,42,170,9r61,-36xm1352,-1544v-16,113,-82,157,-167,200r0,773v4,363,-191,598,-516,598v-324,0,-516,-233,-516,-598r0,-945r151,0r0,945v-1,103,17,213,51,274v69,124,173,186,314,186v232,0,364,-186,364,-460r0,-945r152,0r0,36v25,-19,40,-43,43,-70r-65,0r0,-180r189,0r0,186"},"\u1ef0":{"d":"593,385r0,-259r152,0r0,259r-152,0xm1352,-1544v-16,113,-82,157,-167,200r0,773v4,363,-191,598,-516,598v-324,0,-516,-233,-516,-598r0,-945r151,0r0,945v-1,103,17,213,51,274v69,124,173,186,314,186v232,0,364,-186,364,-460r0,-945r152,0r0,36v25,-19,40,-43,43,-70r-65,0r0,-180r189,0r0,186"},"\u01a0":{"d":"1540,-756v0,-346,-305,-649,-651,-649v-350,0,-649,306,-649,655v0,339,309,639,649,639v345,0,651,-300,651,-645xm1574,-1544v-15,108,-79,154,-158,196v169,144,276,358,276,590v0,422,-379,785,-803,785v-417,0,-801,-362,-801,-777v0,-429,370,-792,801,-792v157,0,298,39,423,117v50,-22,129,-59,138,-125r-65,0r0,-180r189,0r0,186","w":1779},"\u1edc":{"d":"1540,-756v0,-346,-305,-649,-651,-649v-350,0,-649,306,-649,655v0,339,309,639,649,639v345,0,651,-300,651,-645xm1051,-1602r-406,-219r66,-123r407,224xm1574,-1544v-15,108,-79,154,-158,196v169,144,276,358,276,590v0,422,-379,785,-803,785v-417,0,-801,-362,-801,-777v0,-429,370,-792,801,-792v157,0,298,39,423,117v50,-22,129,-59,138,-125r-65,0r0,-180r189,0r0,186","w":1779},"\u1eda":{"d":"1540,-756v0,-346,-305,-649,-651,-649v-350,0,-649,306,-649,655v0,339,309,639,649,639v345,0,651,-300,651,-645xm815,-1602r-68,-118r408,-224r66,123xm1574,-1544v-15,108,-79,154,-158,196v169,144,276,358,276,590v0,422,-379,785,-803,785v-417,0,-801,-362,-801,-777v0,-429,370,-792,801,-792v157,0,298,39,423,117v50,-22,129,-59,138,-125r-65,0r0,-180r189,0r0,186","w":1779},"\u1ede":{"d":"1540,-756v0,-346,-305,-649,-651,-649v-350,0,-649,306,-649,655v0,339,309,639,649,639v345,0,651,-300,651,-645xm893,-2082v168,-8,280,194,162,316v-46,48,-98,72,-98,171r-127,0v-11,-123,76,-173,132,-242v46,-57,-9,-147,-71,-142v-62,5,-98,45,-89,137r-129,0v-15,-142,90,-234,220,-240xm1574,-1544v-15,108,-79,154,-158,196v169,144,276,358,276,590v0,422,-379,785,-803,785v-417,0,-801,-362,-801,-777v0,-429,370,-792,801,-792v157,0,298,39,423,117v50,-22,129,-59,138,-125r-65,0r0,-180r189,0r0,186","w":1779},"\u1ee0":{"d":"1540,-756v0,-346,-305,-649,-651,-649v-350,0,-649,306,-649,655v0,339,309,639,649,639v345,0,651,-300,651,-645xm1243,-1726v-120,92,-230,98,-360,37v-39,-18,-88,-42,-138,-42v-48,0,-94,21,-137,62r-71,-103v103,-112,279,-95,401,-28v49,27,114,42,170,9r61,-36xm1574,-1544v-15,108,-79,154,-158,196v169,144,276,358,276,590v0,422,-379,785,-803,785v-417,0,-801,-362,-801,-777v0,-429,370,-792,801,-792v157,0,298,39,423,117v50,-22,129,-59,138,-125r-65,0r0,-180r189,0r0,186","w":1779},"\u1ee2":{"d":"1540,-756v0,-346,-305,-649,-651,-649v-350,0,-649,306,-649,655v0,339,309,639,649,639v345,0,651,-300,651,-645xm814,385r0,-259r152,0r0,259r-152,0xm1574,-1544v-15,108,-79,154,-158,196v169,144,276,358,276,590v0,422,-379,785,-803,785v-417,0,-801,-362,-801,-777v0,-429,370,-792,801,-792v157,0,298,39,423,117v50,-22,129,-59,138,-125r-65,0r0,-180r189,0r0,186","w":1779},"\u1ef2":{"d":"680,-506r0,506r-152,0r0,-506r-526,-1010r168,0r432,850r444,-850r166,0xm790,-1602r-406,-219r66,-123r408,224","w":1212},"\u00dd":{"d":"680,-506r0,506r-152,0r0,-506r-526,-1010r168,0r432,850r444,-850r166,0xm491,-1602r-67,-118r407,-224r66,123","w":1212},"\u1ef6":{"d":"680,-506r0,506r-152,0r0,-506r-526,-1010r168,0r432,850r444,-850r166,0xm611,-2082v168,-8,280,194,162,316v-46,48,-98,72,-98,171r-127,0v-11,-123,76,-173,132,-242v46,-57,-9,-147,-71,-142v-62,5,-98,45,-89,137r-129,0v-15,-142,90,-234,220,-240","w":1212},"\u1ef8":{"d":"680,-506r0,506r-152,0r0,-506r-526,-1010r168,0r432,850r444,-850r166,0xm960,-1726v-120,92,-230,98,-360,37v-39,-18,-88,-42,-138,-42v-48,0,-94,21,-137,62r-71,-103v103,-112,279,-95,401,-28v49,27,114,42,170,9r61,-36","w":1212},"\u1ef4":{"d":"680,-506r0,506r-152,0r0,-506r-526,-1010r168,0r432,850r444,-850r166,0xm533,385r0,-259r152,0r0,259r-152,0","w":1212},"\u00e0":{"d":"86,-563v0,-325,277,-586,602,-586v195,0,341,75,436,225r4,0r0,-196r144,0r0,1120r-144,0r0,-197r-4,0v-99,149,-244,224,-436,224v-329,0,-602,-262,-602,-590xm1137,-559v0,-246,-204,-461,-449,-461v-260,0,-459,203,-459,463v0,256,202,455,459,455v245,0,449,-211,449,-457xm860,-1268r-405,-219r65,-123r408,224","w":1398},"\u00e1":{"d":"86,-563v0,-325,277,-586,602,-586v195,0,341,75,436,225r4,0r0,-196r144,0r0,1120r-144,0r0,-197r-4,0v-99,149,-244,224,-436,224v-329,0,-602,-262,-602,-590xm1137,-559v0,-246,-204,-461,-449,-461v-260,0,-459,203,-459,463v0,256,202,455,459,455v245,0,449,-211,449,-457xm543,-1268r-68,-118r408,-224r65,123","w":1398},"\u1ea3":{"d":"86,-563v0,-325,277,-586,602,-586v195,0,341,75,436,225r4,0r0,-196r144,0r0,1120r-144,0r0,-197r-4,0v-99,149,-244,224,-436,224v-329,0,-602,-262,-602,-590xm1137,-559v0,-246,-204,-461,-449,-461v-260,0,-459,203,-459,463v0,256,202,455,459,455v245,0,449,-211,449,-457xm691,-1730v168,-8,280,194,162,316v-46,48,-98,72,-98,171r-127,0v-11,-123,76,-173,132,-242v46,-57,-9,-147,-71,-142v-62,5,-98,45,-89,137r-129,0v-15,-142,90,-234,220,-240","w":1398},"\u00e3":{"d":"86,-563v0,-325,277,-586,602,-586v195,0,341,75,436,225r4,0r0,-196r144,0r0,1120r-144,0r0,-197r-4,0v-99,149,-244,224,-436,224v-329,0,-602,-262,-602,-590xm1137,-559v0,-246,-204,-461,-449,-461v-260,0,-459,203,-459,463v0,256,202,455,459,455v245,0,449,-211,449,-457xm1053,-1413v-120,93,-229,99,-360,38v-38,-18,-89,-42,-138,-42v-48,0,-94,20,-137,61r-72,-102v99,-104,262,-102,385,-36v52,28,125,53,186,16r62,-35","w":1398},"\u1ea1":{"d":"86,-563v0,-325,277,-586,602,-586v195,0,341,75,436,225r4,0r0,-196r144,0r0,1120r-144,0r0,-197r-4,0v-99,149,-244,224,-436,224v-329,0,-602,-262,-602,-590xm1137,-559v0,-246,-204,-461,-449,-461v-260,0,-459,203,-459,463v0,256,202,455,459,455v245,0,449,-211,449,-457xm603,385r0,-259r152,0r0,259r-152,0","w":1398},"\u00e2":{"d":"86,-563v0,-325,277,-586,602,-586v195,0,341,75,436,225r4,0r0,-196r144,0r0,1120r-144,0r0,-197r-4,0v-99,149,-244,224,-436,224v-329,0,-602,-262,-602,-590xm1137,-559v0,-246,-204,-461,-449,-461v-260,0,-459,203,-459,463v0,256,202,455,459,455v245,0,449,-211,449,-457xm881,-1309r-177,-149r-180,149r-186,0r297,-256r135,0r293,256r-182,0","w":1398},"\u1ea7":{"d":"86,-563v0,-325,277,-586,602,-586v195,0,341,75,436,225r4,0r0,-196r144,0r0,1120r-144,0r0,-197r-4,0v-99,149,-244,224,-436,224v-329,0,-602,-262,-602,-590xm1137,-559v0,-246,-204,-461,-449,-461v-260,0,-459,203,-459,463v0,256,202,455,459,455v245,0,449,-211,449,-457xm970,-1539r-405,-219r65,-123r408,224xm881,-1309r-177,-149r-180,149r-186,0r297,-256r135,0r293,256r-182,0","w":1398},"\u1ea5":{"d":"86,-563v0,-325,277,-586,602,-586v195,0,341,75,436,225r4,0r0,-196r144,0r0,1120r-144,0r0,-197r-4,0v-99,149,-244,224,-436,224v-329,0,-602,-262,-602,-590xm1137,-559v0,-246,-204,-461,-449,-461v-260,0,-459,203,-459,463v0,256,202,455,459,455v245,0,449,-211,449,-457xm1005,-1448r-68,-118r408,-224r65,123xm881,-1309r-177,-149r-180,149r-186,0r297,-256r135,0r293,256r-182,0","w":1398},"\u1ea9":{"d":"86,-563v0,-325,277,-586,602,-586v195,0,341,75,436,225r4,0r0,-196r144,0r0,1120r-144,0r0,-197r-4,0v-99,149,-244,224,-436,224v-329,0,-602,-262,-602,-590xm1137,-559v0,-246,-204,-461,-449,-461v-260,0,-459,203,-459,463v0,256,202,455,459,455v245,0,449,-211,449,-457xm881,-1309r-177,-149r-180,149r-186,0r297,-256r135,0r293,256r-182,0xm972,-1971v168,-8,280,194,162,316v-46,48,-98,72,-98,171r-127,0v-11,-123,76,-173,132,-242v46,-57,-9,-147,-71,-142v-62,5,-98,45,-89,137r-129,0v-15,-142,90,-234,220,-240","w":1398},"\u1eab":{"d":"86,-563v0,-325,277,-586,602,-586v195,0,341,75,436,225r4,0r0,-196r144,0r0,1120r-144,0r0,-197r-4,0v-99,149,-244,224,-436,224v-329,0,-602,-262,-602,-590xm1137,-559v0,-246,-204,-461,-449,-461v-260,0,-459,203,-459,463v0,256,202,455,459,455v245,0,449,-211,449,-457xm1123,-1674v-120,93,-229,99,-360,38v-38,-18,-89,-42,-138,-42v-48,0,-94,20,-137,61r-72,-102v99,-104,262,-102,385,-36v52,28,125,53,186,16r62,-35xm881,-1309r-177,-149r-180,149r-186,0r297,-256r135,0r293,256r-182,0","w":1398},"\u1ead":{"d":"86,-563v0,-325,277,-586,602,-586v195,0,341,75,436,225r4,0r0,-196r144,0r0,1120r-144,0r0,-197r-4,0v-99,149,-244,224,-436,224v-329,0,-602,-262,-602,-590xm1137,-559v0,-246,-204,-461,-449,-461v-260,0,-459,203,-459,463v0,256,202,455,459,455v245,0,449,-211,449,-457xm603,385r0,-259r152,0r0,259r-152,0xm881,-1309r-177,-149r-180,149r-186,0r297,-256r135,0r293,256r-182,0","w":1398},"\u0103":{"d":"86,-563v0,-325,277,-586,602,-586v195,0,341,75,436,225r4,0r0,-196r144,0r0,1120r-144,0r0,-197r-4,0v-99,149,-244,224,-436,224v-329,0,-602,-262,-602,-590xm1137,-559v0,-246,-204,-461,-449,-461v-260,0,-459,203,-459,463v0,256,202,455,459,455v245,0,449,-211,449,-457xm709,-1397v100,0,184,-35,226,-94r133,0v-50,136,-173,211,-359,211v-184,0,-308,-73,-356,-211r133,0v46,63,120,94,223,94","w":1398},"\u1eb1":{"d":"86,-563v0,-325,277,-586,602,-586v195,0,341,75,436,225r4,0r0,-196r144,0r0,1120r-144,0r0,-197r-4,0v-99,149,-244,224,-436,224v-329,0,-602,-262,-602,-590xm1137,-559v0,-246,-204,-461,-449,-461v-260,0,-459,203,-459,463v0,256,202,455,459,455v245,0,449,-211,449,-457xm820,-1539r-405,-219r65,-123r408,224xm709,-1397v100,0,184,-35,226,-94r133,0v-50,136,-173,211,-359,211v-184,0,-308,-73,-356,-211r133,0v46,63,120,94,223,94","w":1398},"\u1eaf":{"d":"86,-563v0,-325,277,-586,602,-586v195,0,341,75,436,225r4,0r0,-196r144,0r0,1120r-144,0r0,-197r-4,0v-99,149,-244,224,-436,224v-329,0,-602,-262,-602,-590xm1137,-559v0,-246,-204,-461,-449,-461v-260,0,-459,203,-459,463v0,256,202,455,459,455v245,0,449,-211,449,-457xm703,-1478r-68,-118r408,-224r65,123xm709,-1397v100,0,184,-35,226,-94r133,0v-50,136,-173,211,-359,211v-184,0,-308,-73,-356,-211r133,0v46,63,120,94,223,94","w":1398},"\u1eb3":{"d":"86,-563v0,-325,277,-586,602,-586v195,0,341,75,436,225r4,0r0,-196r144,0r0,1120r-144,0r0,-197r-4,0v-99,149,-244,224,-436,224v-329,0,-602,-262,-602,-590xm1137,-559v0,-246,-204,-461,-449,-461v-260,0,-459,203,-459,463v0,256,202,455,459,455v245,0,449,-211,449,-457xm721,-1991v168,-8,280,194,162,316v-46,48,-98,72,-98,171r-127,0v-11,-123,76,-173,132,-242v46,-57,-9,-147,-71,-142v-62,5,-98,45,-89,137r-129,0v-15,-142,90,-234,220,-240xm709,-1397v100,0,184,-35,226,-94r133,0v-50,136,-173,211,-359,211v-184,0,-308,-73,-356,-211r133,0v46,63,120,94,223,94","w":1398},"\u1eb5":{"d":"86,-563v0,-325,277,-586,602,-586v195,0,341,75,436,225r4,0r0,-196r144,0r0,1120r-144,0r0,-197r-4,0v-99,149,-244,224,-436,224v-329,0,-602,-262,-602,-590xm1137,-559v0,-246,-204,-461,-449,-461v-260,0,-459,203,-459,463v0,256,202,455,459,455v245,0,449,-211,449,-457xm1123,-1674v-120,93,-229,99,-360,38v-38,-18,-89,-42,-138,-42v-48,0,-94,20,-137,61r-72,-102v99,-104,262,-102,385,-36v52,28,125,53,186,16r62,-35xm709,-1397v100,0,184,-35,226,-94r133,0v-50,136,-173,211,-359,211v-184,0,-308,-73,-356,-211r133,0v46,63,120,94,223,94","w":1398},"\u1eb7":{"d":"86,-563v0,-325,277,-586,602,-586v195,0,341,75,436,225r4,0r0,-196r144,0r0,1120r-144,0r0,-197r-4,0v-99,149,-244,224,-436,224v-329,0,-602,-262,-602,-590xm1137,-559v0,-246,-204,-461,-449,-461v-260,0,-459,203,-459,463v0,256,202,455,459,455v245,0,449,-211,449,-457xm603,385r0,-259r152,0r0,259r-152,0xm709,-1397v100,0,184,-35,226,-94r133,0v-50,136,-173,211,-359,211v-184,0,-308,-73,-356,-211r133,0v46,63,120,94,223,94","w":1398},"\u00e8":{"d":"659,-1149v327,0,616,292,585,641r-1020,0v2,210,218,409,435,406v189,-3,351,-118,401,-265r152,0v-70,213,-285,390,-551,394v-313,5,-584,-271,-584,-586v0,-313,271,-590,582,-590xm1099,-637v-30,-207,-208,-383,-438,-383v-228,0,-409,177,-437,383r875,0xm825,-1268r-406,-219r66,-123r407,224","w":1331},"\u00e9":{"d":"659,-1149v327,0,616,292,585,641r-1020,0v2,210,218,409,435,406v189,-3,351,-118,401,-265r152,0v-70,213,-285,390,-551,394v-313,5,-584,-271,-584,-586v0,-313,271,-590,582,-590xm1099,-637v-30,-207,-208,-383,-438,-383v-228,0,-409,177,-437,383r875,0xm509,-1268r-67,-118r407,-224r66,123","w":1331},"\u1ebb":{"d":"659,-1149v327,0,616,292,585,641r-1020,0v2,210,218,409,435,406v189,-3,351,-118,401,-265r152,0v-70,213,-285,390,-551,394v-313,5,-584,-271,-584,-586v0,-313,271,-590,582,-590xm1099,-637v-30,-207,-208,-383,-438,-383v-228,0,-409,177,-437,383r875,0xm650,-1730v168,-8,280,194,162,316v-46,48,-98,72,-98,171r-127,0v-11,-123,76,-173,132,-242v46,-57,-9,-147,-71,-142v-62,5,-98,45,-89,137r-129,0v-15,-142,90,-234,220,-240","w":1331},"\u1ebd":{"d":"659,-1149v327,0,616,292,585,641r-1020,0v2,210,218,409,435,406v189,-3,351,-118,401,-265r152,0v-70,213,-285,390,-551,394v-313,5,-584,-271,-584,-586v0,-313,271,-590,582,-590xm1099,-637v-30,-207,-208,-383,-438,-383v-228,0,-409,177,-437,383r875,0xm1015,-1413v-120,93,-229,99,-360,38v-38,-18,-89,-42,-138,-42v-48,0,-94,20,-137,61r-72,-102v100,-104,262,-102,385,-36v52,28,125,53,187,16r61,-35","w":1331},"\u1eb9":{"d":"659,-1149v327,0,616,292,585,641r-1020,0v2,210,218,409,435,406v189,-3,351,-118,401,-265r152,0v-70,213,-285,390,-551,394v-313,5,-584,-271,-584,-586v0,-313,271,-590,582,-590xm1099,-637v-30,-207,-208,-383,-438,-383v-228,0,-409,177,-437,383r875,0xm586,385r0,-259r152,0r0,259r-152,0","w":1331},"\u00ea":{"d":"659,-1149v327,0,616,292,585,641r-1020,0v2,210,218,409,435,406v189,-3,351,-118,401,-265r152,0v-70,213,-285,390,-551,394v-313,5,-584,-271,-584,-586v0,-313,271,-590,582,-590xm1099,-637v-30,-207,-208,-383,-438,-383v-228,0,-409,177,-437,383r875,0xm845,-1309r-176,-149r-180,149r-187,0r297,-256r135,0r293,256r-182,0","w":1331},"\u1ec1":{"d":"659,-1149v327,0,616,292,585,641r-1020,0v2,210,218,409,435,406v189,-3,351,-118,401,-265r152,0v-70,213,-285,390,-551,394v-313,5,-584,-271,-584,-586v0,-313,271,-590,582,-590xm1099,-637v-30,-207,-208,-383,-438,-383v-228,0,-409,177,-437,383r875,0xm915,-1539r-406,-219r66,-123r407,224xm845,-1309r-176,-149r-180,149r-187,0r297,-256r135,0r293,256r-182,0","w":1331},"\u1ebf":{"d":"659,-1149v327,0,616,292,585,641r-1020,0v2,210,218,409,435,406v189,-3,351,-118,401,-265r152,0v-70,213,-285,390,-551,394v-313,5,-584,-271,-584,-586v0,-313,271,-590,582,-590xm1099,-637v-30,-207,-208,-383,-438,-383v-228,0,-409,177,-437,383r875,0xm921,-1459r-67,-118r407,-224r66,123xm845,-1309r-176,-149r-180,149r-187,0r297,-256r135,0r293,256r-182,0","w":1331},"\u1ec3":{"d":"659,-1149v327,0,616,292,585,641r-1020,0v2,210,218,409,435,406v189,-3,351,-118,401,-265r152,0v-70,213,-285,390,-551,394v-313,5,-584,-271,-584,-586v0,-313,271,-590,582,-590xm1099,-637v-30,-207,-208,-383,-438,-383v-228,0,-409,177,-437,383r875,0xm911,-2001v168,-8,280,194,162,316v-46,48,-98,72,-98,171r-127,0v-11,-123,76,-173,132,-242v46,-57,-9,-147,-71,-142v-62,5,-98,45,-89,137r-129,0v-15,-142,90,-234,220,-240xm845,-1309r-176,-149r-180,149r-187,0r297,-256r135,0r293,256r-182,0","w":1331},"\u1ec5":{"d":"659,-1149v327,0,616,292,585,641r-1020,0v2,210,218,409,435,406v189,-3,351,-118,401,-265r152,0v-70,213,-285,390,-551,394v-313,5,-584,-271,-584,-586v0,-313,271,-590,582,-590xm1099,-637v-30,-207,-208,-383,-438,-383v-228,0,-409,177,-437,383r875,0xm1135,-1663v-120,93,-229,99,-360,38v-38,-18,-89,-42,-138,-42v-48,0,-94,20,-137,61r-72,-102v100,-104,262,-102,385,-36v52,28,125,53,187,16r61,-35xm845,-1309r-176,-149r-180,149r-187,0r297,-256r135,0r293,256r-182,0","w":1331},"\u1ec7":{"d":"659,-1149v327,0,616,292,585,641r-1020,0v2,210,218,409,435,406v189,-3,351,-118,401,-265r152,0v-70,213,-285,390,-551,394v-313,5,-584,-271,-584,-586v0,-313,271,-590,582,-590xm1099,-637v-30,-207,-208,-383,-438,-383v-228,0,-409,177,-437,383r875,0xm586,385r0,-259r152,0r0,259r-152,0xm845,-1309r-176,-149r-180,149r-187,0r297,-256r135,0r293,256r-182,0","w":1331},"\u00ec":{"d":"134,0r0,-1120r143,0r0,1120r-143,0xm284,-1268r-406,-219r66,-123r407,224","w":409},"\u00ed":{"d":"133,0r0,-1120r143,0r0,1120r-143,0xm129,-1268r-68,-118r408,-224r65,123","w":409},"\u1ec9":{"d":"133,0r0,-1120r144,0r0,1120r-144,0xm199,-1730v168,-8,280,194,162,316v-46,48,-98,72,-98,171r-127,0v-11,-123,76,-173,132,-242v46,-57,-9,-147,-71,-142v-62,5,-98,45,-89,137r-129,0v-15,-142,90,-234,220,-240","w":409},"\u0129":{"d":"133,0r0,-1120r143,0r0,1120r-143,0xm574,-1353v-120,93,-229,99,-360,38v-38,-18,-89,-42,-138,-42v-48,0,-94,20,-137,61r-72,-102v99,-104,262,-102,385,-36v52,28,125,53,186,16r62,-35","w":409},"\u1ecb":{"d":"134,-1257r0,-259r143,0r0,259r-143,0xm134,0r0,-1120r143,0r0,1120r-143,0xm125,385r0,-259r152,0r0,259r-152,0","w":409},"\u00f2":{"d":"1257,-561v0,312,-275,588,-587,588v-306,0,-584,-275,-584,-580v0,-316,269,-596,584,-596v310,0,587,278,587,588xm1114,-567v0,-238,-205,-453,-442,-453v-243,0,-443,219,-443,465v0,239,205,453,443,453v247,0,442,-215,442,-465xm831,-1268r-405,-219r66,-123r407,224"},"\u00f3":{"d":"1257,-561v0,312,-275,588,-587,588v-306,0,-584,-275,-584,-580v0,-316,269,-596,584,-596v310,0,587,278,587,588xm1114,-567v0,-238,-205,-453,-442,-453v-243,0,-443,219,-443,465v0,239,205,453,443,453v247,0,442,-215,442,-465xm575,-1268r-67,-118r407,-224r66,123"},"\u1ecf":{"d":"1257,-561v0,312,-275,588,-587,588v-306,0,-584,-275,-584,-580v0,-316,269,-596,584,-596v310,0,587,278,587,588xm1114,-567v0,-238,-205,-453,-442,-453v-243,0,-443,219,-443,465v0,239,205,453,443,453v247,0,442,-215,442,-465xm681,-1730v168,-8,280,194,162,316v-46,48,-98,72,-98,171r-127,0v-11,-123,76,-173,132,-242v46,-57,-9,-147,-71,-142v-62,5,-98,45,-89,137r-129,0v-15,-142,90,-234,220,-240"},"\u00f5":{"d":"1257,-561v0,312,-275,588,-587,588v-306,0,-584,-275,-584,-580v0,-316,269,-596,584,-596v310,0,587,278,587,588xm1114,-567v0,-238,-205,-453,-442,-453v-243,0,-443,219,-443,465v0,239,205,453,443,453v247,0,442,-215,442,-465xm1024,-1413v-120,93,-229,99,-360,38v-38,-18,-89,-42,-138,-42v-48,0,-94,20,-137,61r-72,-102v100,-104,262,-102,385,-36v52,28,125,53,187,16r61,-35"},"\u1ecd":{"d":"1257,-561v0,312,-275,588,-587,588v-306,0,-584,-275,-584,-580v0,-316,269,-596,584,-596v310,0,587,278,587,588xm1114,-567v0,-238,-205,-453,-442,-453v-243,0,-443,219,-443,465v0,239,205,453,443,453v247,0,442,-215,442,-465xm596,385r0,-259r152,0r0,259r-152,0"},"\u00f4":{"d":"1257,-561v0,312,-275,588,-587,588v-306,0,-584,-275,-584,-580v0,-316,269,-596,584,-596v310,0,587,278,587,588xm1114,-567v0,-238,-205,-453,-442,-453v-243,0,-443,219,-443,465v0,239,205,453,443,453v247,0,442,-215,442,-465xm852,-1309r-176,-149r-180,149r-187,0r297,-256r135,0r293,256r-182,0"},"\u1ed3":{"d":"1257,-561v0,312,-275,588,-587,588v-306,0,-584,-275,-584,-580v0,-316,269,-596,584,-596v310,0,587,278,587,588xm1114,-567v0,-238,-205,-453,-442,-453v-243,0,-443,219,-443,465v0,239,205,453,443,453v247,0,442,-215,442,-465xm931,-1539r-405,-219r66,-123r407,224xm852,-1309r-176,-149r-180,149r-187,0r297,-256r135,0r293,256r-182,0"},"\u1ed1":{"d":"1257,-561v0,312,-275,588,-587,588v-306,0,-584,-275,-584,-580v0,-316,269,-596,584,-596v310,0,587,278,587,588xm1114,-567v0,-238,-205,-453,-442,-453v-243,0,-443,219,-443,465v0,239,205,453,443,453v247,0,442,-215,442,-465xm947,-1449r-67,-118r407,-224r66,123xm852,-1309r-176,-149r-180,149r-187,0r297,-256r135,0r293,256r-182,0"},"\u1ed5":{"d":"1257,-561v0,312,-275,588,-587,588v-306,0,-584,-275,-584,-580v0,-316,269,-596,584,-596v310,0,587,278,587,588xm1114,-567v0,-238,-205,-453,-442,-453v-243,0,-443,219,-443,465v0,239,205,453,443,453v247,0,442,-215,442,-465xm922,-1991v168,-8,280,194,162,316v-46,48,-98,72,-98,171r-127,0v-11,-123,76,-173,132,-242v46,-57,-9,-147,-71,-142v-62,5,-98,45,-89,137r-129,0v-15,-142,90,-234,220,-240xm852,-1309r-176,-149r-180,149r-187,0r297,-256r135,0r293,256r-182,0"},"\u1ed7":{"d":"1257,-561v0,312,-275,588,-587,588v-306,0,-584,-275,-584,-580v0,-316,269,-596,584,-596v310,0,587,278,587,588xm1114,-567v0,-238,-205,-453,-442,-453v-243,0,-443,219,-443,465v0,239,205,453,443,453v247,0,442,-215,442,-465xm1114,-1663v-120,93,-229,99,-360,38v-38,-18,-89,-42,-138,-42v-48,0,-94,20,-137,61r-72,-102v100,-104,262,-102,385,-36v52,28,125,53,187,16r61,-35xm852,-1309r-176,-149r-180,149r-187,0r297,-256r135,0r293,256r-182,0"},"\u1ed9":{"d":"1257,-561v0,312,-275,588,-587,588v-306,0,-584,-275,-584,-580v0,-316,269,-596,584,-596v310,0,587,278,587,588xm1114,-567v0,-238,-205,-453,-442,-453v-243,0,-443,219,-443,465v0,239,205,453,443,453v247,0,442,-215,442,-465xm596,385r0,-259r152,0r0,259r-152,0xm852,-1309r-176,-149r-180,149r-187,0r297,-256r135,0r293,256r-182,0"},"\u00f9":{"d":"269,-504v-1,253,101,399,340,402v165,2,294,-111,333,-245v14,-48,22,-108,22,-181r0,-592r143,0r0,1120r-135,0r0,-174r-4,0v-55,120,-189,201,-359,201v-307,0,-483,-192,-483,-529r0,-618r143,0r0,616xm740,-1268r-405,-219r65,-123r408,224","w":1245},"\u00fa":{"d":"269,-504v-1,253,101,399,340,402v165,2,294,-111,333,-245v14,-48,22,-108,22,-181r0,-592r143,0r0,1120r-135,0r0,-174r-4,0v-55,120,-189,201,-359,201v-307,0,-483,-192,-483,-529r0,-618r143,0r0,616xm507,-1268r-68,-118r408,-224r65,123","w":1245},"\u1ee7":{"d":"269,-504v-1,253,101,399,340,402v165,2,294,-111,333,-245v14,-48,22,-108,22,-181r0,-592r143,0r0,1120r-135,0r0,-174r-4,0v-55,120,-189,201,-359,201v-307,0,-483,-192,-483,-529r0,-618r143,0r0,616xm630,-1730v168,-8,280,194,162,316v-46,48,-98,72,-98,171r-127,0v-11,-123,76,-173,132,-242v46,-57,-9,-147,-71,-142v-62,5,-98,45,-89,137r-129,0v-15,-142,90,-234,220,-240","w":1245},"\u0169":{"d":"269,-504v-1,253,101,399,340,402v165,2,294,-111,333,-245v14,-48,22,-108,22,-181r0,-592r143,0r0,1120r-135,0r0,-174r-4,0v-55,120,-189,201,-359,201v-307,0,-483,-192,-483,-529r0,-618r143,0r0,616xm1023,-1413v-120,93,-229,99,-360,38v-38,-18,-89,-42,-138,-42v-48,0,-94,20,-137,61r-72,-102v100,-104,262,-102,385,-36v52,28,125,53,187,16r61,-35","w":1245},"\u1ee5":{"d":"269,-504v-1,253,101,399,340,402v165,2,294,-111,333,-245v14,-48,22,-108,22,-181r0,-592r143,0r0,1120r-135,0r0,-174r-4,0v-55,120,-189,201,-359,201v-307,0,-483,-192,-483,-529r0,-618r143,0r0,616xm595,385r0,-259r152,0r0,259r-152,0","w":1245},"\u01b0":{"d":"269,-504v-1,253,101,399,340,402v165,2,294,-111,333,-245v14,-48,22,-108,22,-181r0,-592r143,0r0,33v25,-19,43,-45,46,-75r-61,0r0,-180r176,0v-3,93,10,209,-24,268v-34,59,-75,91,-137,120r0,954r-135,0r0,-174r-4,0v-55,120,-189,201,-359,201v-307,0,-483,-192,-483,-529r0,-618r143,0r0,616","w":1245},"\u1eeb":{"d":"740,-1268r-405,-219r65,-123r408,224xm269,-504v-1,253,101,399,340,402v165,2,294,-111,333,-245v14,-48,22,-108,22,-181r0,-592r143,0r0,33v25,-19,43,-45,46,-75r-61,0r0,-180r176,0v-3,93,10,209,-24,268v-34,59,-75,91,-137,120r0,954r-135,0r0,-174r-4,0v-55,120,-189,201,-359,201v-307,0,-483,-192,-483,-529r0,-618r143,0r0,616","w":1245},"\u1ee9":{"d":"507,-1268r-68,-118r408,-224r65,123xm269,-504v-1,253,101,399,340,402v165,2,294,-111,333,-245v14,-48,22,-108,22,-181r0,-592r143,0r0,33v25,-19,43,-45,46,-75r-61,0r0,-180r176,0v-3,93,10,209,-24,268v-34,59,-75,91,-137,120r0,954r-135,0r0,-174r-4,0v-55,120,-189,201,-359,201v-307,0,-483,-192,-483,-529r0,-618r143,0r0,616","w":1245},"\u1eed":{"d":"630,-1730v168,-8,280,194,162,316v-46,48,-98,72,-98,171r-127,0v-11,-123,76,-173,132,-242v46,-57,-9,-147,-71,-142v-62,5,-98,45,-89,137r-129,0v-15,-142,90,-234,220,-240xm269,-504v-1,253,101,399,340,402v165,2,294,-111,333,-245v14,-48,22,-108,22,-181r0,-592r143,0r0,33v25,-19,43,-45,46,-75r-61,0r0,-180r176,0v-3,93,10,209,-24,268v-34,59,-75,91,-137,120r0,954r-135,0r0,-174r-4,0v-55,120,-189,201,-359,201v-307,0,-483,-192,-483,-529r0,-618r143,0r0,616","w":1245},"\u1eef":{"d":"1023,-1413v-120,93,-229,99,-360,38v-38,-18,-89,-42,-138,-42v-48,0,-94,20,-137,61r-72,-102v100,-104,262,-102,385,-36v52,28,125,53,187,16r61,-35xm269,-504v-1,253,101,399,340,402v165,2,294,-111,333,-245v14,-48,22,-108,22,-181r0,-592r143,0r0,33v25,-19,43,-45,46,-75r-61,0r0,-180r176,0v-3,93,10,209,-24,268v-34,59,-75,91,-137,120r0,954r-135,0r0,-174r-4,0v-55,120,-189,201,-359,201v-307,0,-483,-192,-483,-529r0,-618r143,0r0,616","w":1245},"\u1ef1":{"d":"595,385r0,-259r152,0r0,259r-152,0xm269,-504v-1,253,101,399,340,402v165,2,294,-111,333,-245v14,-48,22,-108,22,-181r0,-592r143,0r0,33v25,-19,43,-45,46,-75r-61,0r0,-180r176,0v-3,93,10,209,-24,268v-34,59,-75,91,-137,120r0,954r-135,0r0,-174r-4,0v-55,120,-189,201,-359,201v-307,0,-483,-192,-483,-529r0,-618r143,0r0,616","w":1245},"\u01a1":{"d":"1114,-567v0,-238,-205,-453,-442,-453v-243,0,-443,219,-443,465v0,239,205,453,443,453v247,0,442,-215,442,-465xm1239,-1156v-13,104,-71,153,-144,194v108,113,162,247,162,401v0,312,-275,588,-587,588v-306,0,-584,-275,-584,-580v0,-316,269,-596,584,-596v125,0,237,36,335,107v44,-20,112,-59,119,-120r-61,0r0,-180r176,0r0,186"},"\u1edd":{"d":"1114,-567v0,-238,-205,-453,-442,-453v-243,0,-443,219,-443,465v0,239,205,453,443,453v247,0,442,-215,442,-465xm831,-1268r-405,-219r66,-123r407,224xm1239,-1156v-13,104,-71,153,-144,194v108,113,162,247,162,401v0,312,-275,588,-587,588v-306,0,-584,-275,-584,-580v0,-316,269,-596,584,-596v125,0,237,36,335,107v44,-20,112,-59,119,-120r-61,0r0,-180r176,0r0,186"},"\u1edb":{"d":"1114,-567v0,-238,-205,-453,-442,-453v-243,0,-443,219,-443,465v0,239,205,453,443,453v247,0,442,-215,442,-465xm575,-1268r-67,-118r407,-224r66,123xm1239,-1156v-13,104,-71,153,-144,194v108,113,162,247,162,401v0,312,-275,588,-587,588v-306,0,-584,-275,-584,-580v0,-316,269,-596,584,-596v125,0,237,36,335,107v44,-20,112,-59,119,-120r-61,0r0,-180r176,0r0,186"},"\u1edf":{"d":"1114,-567v0,-238,-205,-453,-442,-453v-243,0,-443,219,-443,465v0,239,205,453,443,453v247,0,442,-215,442,-465xm681,-1730v168,-8,280,194,162,316v-46,48,-98,72,-98,171r-127,0v-11,-123,76,-173,132,-242v46,-57,-9,-147,-71,-142v-62,5,-98,45,-89,137r-129,0v-15,-142,90,-234,220,-240xm1239,-1156v-13,104,-71,153,-144,194v108,113,162,247,162,401v0,312,-275,588,-587,588v-306,0,-584,-275,-584,-580v0,-316,269,-596,584,-596v125,0,237,36,335,107v44,-20,112,-59,119,-120r-61,0r0,-180r176,0r0,186"},"\u1ee1":{"d":"1114,-567v0,-238,-205,-453,-442,-453v-243,0,-443,219,-443,465v0,239,205,453,443,453v247,0,442,-215,442,-465xm1024,-1413v-120,93,-229,99,-360,38v-38,-18,-89,-42,-138,-42v-48,0,-94,20,-137,61r-72,-102v100,-104,262,-102,385,-36v52,28,125,53,187,16r61,-35xm1239,-1156v-13,104,-71,153,-144,194v108,113,162,247,162,401v0,312,-275,588,-587,588v-306,0,-584,-275,-584,-580v0,-316,269,-596,584,-596v125,0,237,36,335,107v44,-20,112,-59,119,-120r-61,0r0,-180r176,0r0,186"},"\u1ee3":{"d":"1114,-567v0,-238,-205,-453,-442,-453v-243,0,-443,219,-443,465v0,239,205,453,443,453v247,0,442,-215,442,-465xm596,385r0,-259r152,0r0,259r-152,0xm1239,-1156v-13,104,-71,153,-144,194v108,113,162,247,162,401v0,312,-275,588,-587,588v-306,0,-584,-275,-584,-580v0,-316,269,-596,584,-596v125,0,237,36,335,107v44,-20,112,-59,119,-120r-61,0r0,-180r176,0r0,186"},"\u1ef3":{"d":"421,393r-149,0r194,-430r-436,-1083r152,0r356,893r381,-893r151,0xm310,-1487r65,-123r408,224r-68,118","w":1097},"\u00fd":{"d":"421,393r-149,0r194,-430r-436,-1083r152,0r356,893r381,-893r151,0xm433,-1268r-67,-118r407,-224r66,123","w":1097},"\u1ef7":{"d":"421,393r-149,0r194,-430r-436,-1083r152,0r356,893r381,-893r151,0xm590,-1730v168,-8,280,194,162,316v-46,48,-98,72,-98,171r-127,0v-11,-123,76,-173,132,-242v46,-57,-9,-147,-71,-142v-62,5,-98,45,-89,137r-129,0v-15,-142,90,-234,220,-240","w":1097},"\u1ef9":{"d":"421,393r-149,0r194,-430r-436,-1083r152,0r356,893r381,-893r151,0xm933,-1413v-120,93,-229,99,-360,38v-38,-18,-87,-42,-137,-42v-49,0,-95,20,-138,61r-71,-102v99,-103,262,-102,384,-36v52,28,125,53,187,16r62,-35","w":1097},"\u1ef5":{"d":"421,393r-149,0r194,-430r-436,-1083r152,0r356,893r381,-893r151,0xm595,385r0,-259r152,0r0,259r-152,0","w":1097},"\u00f7":{"w":1706},"\u010c":{"w":1274},"\u010d":{"w":922},"\u0110":{"d":"302,-711r0,574r252,0v348,8,555,-110,665,-345v41,-88,60,-181,60,-278v3,-347,-252,-601,-626,-615v-37,-2,-81,-3,-132,-3r-219,0r0,530r460,0r0,137r-460,0xm1431,-754v0,434,-338,759,-838,754r-442,0r0,-711r-122,0r0,-137r122,0r0,-668r442,0v503,-2,838,316,838,762","w":1523},"\u0111":{"d":"79,-563v0,-325,277,-586,602,-586v190,0,335,74,436,221r4,0r0,-588r144,0r0,1516r-144,0r0,-197r-4,0v-100,149,-245,224,-436,224v-329,0,-602,-262,-602,-590xm1130,-559v0,-246,-204,-461,-449,-461v-260,0,-459,203,-459,463v0,256,202,455,459,455v245,0,449,-211,449,-457xm1393,-1362r0,140r-624,0r0,-140r624,0","w":1402},"\u2018":{"d":"378,-1118r-180,-398r152,0r180,398r-152,0","w":802},"\u2019":{"d":"389,-1118r-152,0r180,-398r152,0","w":731},"\u201c":{"d":"679,-1118r-178,-398r150,0r180,398r-152,0xm378,-1118r-180,-398r152,0r180,398r-152,0","w":1028},"\u201d":{"d":"649,-1118r-152,0r180,-398r152,0xm348,-1118r-152,0r180,-398r150,0","w":991},"\u2026":{"d":"1630,0r0,-258r152,0r0,258r-152,0xm948,0r0,-258r152,0r0,258r-152,0xm266,0r0,-258r152,0r0,258r-152,0","w":2048},"\u00a0":{"w":567}}});
/*!
 * The following copyright notice may not be removed under any circumstances.
 * 
 * Copyright:
 * Thit k bi Michael inh Kiên - "In God We Trust - Free for everyone" Email:
 * fontchudepc@gmail.com; www.fontchudep.com
 * 
 * Trademark:
 * Phát trin bi Thien Minh Co., Ltd - http://www.thienminh.vn
 */
Cufon.registerFont({"w":1552,"face":{"font-family":"UTM Avo","font-weight":700,"font-stretch":"normal","units-per-em":"2048","panose-1":"2 4 6 3 5 5 6 2 2 4","ascent":"1638","descent":"-410","x-height":"35","bbox":"-118 -2460 1974 541.027","underline-thickness":"109","underline-position":"-143","unicode-range":"U+0020-U+2026"},"glyphs":{" ":{"w":632},"!":{"d":"165,-500r0,-1016r350,0r0,1016r-350,0xm165,0r0,-348r350,0r0,348r-350,0","w":681},"\"":{"d":"808,-907r-219,0r-67,-609r356,0xm356,-907r-219,0r-68,-609r356,0","w":948},"#":{"d":"1173,-825r-229,0r-21,149r227,0r-30,227r-230,0r-49,357r-231,0r49,-357r-160,0r-49,357r-233,0r49,-357r-203,0r31,-227r205,0r20,-149r-205,0r31,-228r205,0r45,-323r233,0r-45,323r160,0r45,-323r233,0r-45,323r228,0xm552,-825r-20,149r160,0r20,-149r-160,0","w":1265},"$":{"d":"1101,-475v0,210,-148,362,-322,416r0,215r-276,0r0,-207v-207,-40,-337,-184,-340,-408r350,0v6,97,46,146,121,146v78,0,117,-40,117,-121v0,-174,-274,-197,-394,-275v-105,-69,-182,-174,-182,-331v0,-216,109,-354,328,-414r0,-207r276,0r0,207v196,46,290,174,285,389r-317,0v-5,-86,-43,-129,-113,-129v-74,0,-111,38,-111,115v0,116,169,171,277,211v166,61,301,190,301,393","w":860},"%":{"d":"1683,-340v0,197,-172,371,-369,371v-200,0,-371,-172,-371,-371v0,-200,172,-371,371,-371v198,0,369,173,369,371xm677,0r-235,0r626,-1516r238,0xm810,-1176v0,198,-171,369,-368,369v-197,0,-369,-171,-369,-369v0,-197,171,-370,369,-370v199,0,368,171,368,370xm1314,-483v-95,0,-143,48,-143,143v0,95,48,143,143,143v94,0,141,-48,141,-143v0,-95,-47,-143,-141,-143xm442,-1319v-95,0,-142,48,-142,143v0,95,47,142,142,142v94,0,141,-48,141,-144v0,-94,-47,-141,-141,-141","w":1757},"&":{"d":"1054,-1171v-5,171,-90,264,-209,348r179,180r110,-248r359,0v-71,162,-131,353,-232,481r207,213r-231,228r-179,-185v-125,108,-251,181,-452,185v-261,6,-511,-187,-506,-441v4,-205,141,-324,281,-415v-96,-98,-144,-207,-144,-328v0,-221,197,-391,420,-391v216,0,402,161,397,373xm659,-1270v-100,0,-112,119,-65,190v14,21,32,47,59,74v42,-40,95,-95,94,-168v0,-64,-29,-96,-88,-96xm589,-621v-64,52,-116,91,-116,177v0,99,58,149,174,149v76,0,137,-27,184,-82"},"'":{"d":"143,-1020v81,5,166,-2,162,-78r0,-69r-162,0r0,-349r356,0r0,431v2,138,-77,247,-209,247r-147,0r0,-182","w":643},"(":{"d":"512,-498v0,296,165,581,369,684r0,355v-229,-87,-408,-222,-543,-403v-271,-362,-271,-919,1,-1280v135,-180,313,-316,542,-402r0,356v-204,106,-369,391,-369,690","w":968},")":{"d":"457,-504v0,-296,-166,-581,-369,-684r0,-356v228,86,406,222,542,403v272,362,273,919,1,1281v-135,180,-314,316,-543,401r0,-355v203,-105,369,-391,369,-690","w":968},"*":{"d":"868,-1020r170,225r-191,144r-168,-236r-161,236r-191,-144r176,-225r-268,-84r74,-223r262,98r-6,-287r243,0r-14,287r264,-98r78,223","w":1372},"+":{"d":"778,-354r0,354r-328,0r0,-354r-352,0r0,-328r352,0r0,-354r328,0r0,354r352,0r0,328r-352,0","w":1228},",":{"d":"145,147v80,6,164,-2,160,-77r0,-70r-160,0r0,-348r354,0r0,430v2,135,-80,248,-209,248r-145,0r0,-183","w":643},"-":{"d":"0,-424r0,-334r575,0r0,334r-575,0","w":575,"k":{"o":-38,"Y":282,"X":178,"W":112,"V":120,"T":112,"O":-75,"J":-38,"G":-38,"C":-75,"A":36}},"\u2010":{"d":"0,-424r0,-334r575,0r0,334r-575,0","w":575},".":{"d":"145,0r0,-348r354,0r0,348r-354,0","w":643},"\/":{"d":"526,205r-379,0r543,-1721r377,0","w":1214},"0":{"d":"1197,-969v0,268,27,551,-74,731v-114,203,-433,341,-716,220v-226,-96,-340,-272,-340,-529r0,-422v0,-262,114,-440,342,-530v156,-62,309,-62,461,4v218,94,327,271,327,526xm632,-311v127,0,178,-89,178,-226r0,-442v1,-137,-51,-224,-178,-225v-120,-1,-178,95,-178,225r0,442v-1,131,56,226,178,226","w":1265},"1":{"d":"460,0r0,-1190r-248,0r0,-326r635,0r0,1516r-387,0","w":1265},"2":{"d":"647,-1544v291,0,516,159,516,440v0,288,-168,454,-329,619r-88,82r-87,77r514,0r0,326r-1069,0r0,-301r125,-83v193,-131,356,-274,476,-465v49,-77,71,-147,71,-208v0,-98,-48,-147,-143,-147v-125,0,-169,101,-174,239r-369,0v3,-276,107,-431,293,-523v79,-39,168,-56,264,-56","w":1265},"3":{"d":"1185,-446v0,269,-283,483,-561,475v-264,-7,-477,-125,-532,-342v-10,-38,-19,-85,-25,-140r391,0v21,95,80,142,176,142v109,0,164,-57,164,-170v0,-114,-101,-159,-236,-155r-104,1r0,-285v143,7,256,-20,256,-151v0,-89,-35,-133,-106,-133v-77,0,-117,44,-119,131r-381,0v-1,-284,224,-471,518,-471v250,0,475,171,475,414v0,139,-67,245,-200,317v189,65,284,187,284,367","w":1265},"4":{"d":"1068,-266r0,266r-370,0r0,-266r-668,0r0,-283r678,-967r360,0r0,947r168,0r0,303r-168,0xm722,-1044r-4,0r-299,475r303,0r0,-475","w":1265},"5":{"d":"620,-311v108,0,205,-93,205,-201v0,-133,-69,-199,-207,-199v-95,0,-161,44,-198,131r-314,-77r131,-859r838,0r0,326r-541,0r-32,207v55,-30,123,-45,204,-45v225,0,380,102,465,305v56,134,54,284,-4,416v-98,225,-276,338,-536,338v-299,0,-535,-180,-578,-437r389,0v45,63,105,95,178,95","w":1265},"6":{"d":"1229,-549v0,325,-262,578,-588,578v-414,0,-709,-377,-559,-799v23,-64,57,-128,100,-193r377,-553r449,0r-334,457v15,7,49,-4,78,-4v274,0,477,236,477,514xm842,-516v0,-117,-95,-207,-213,-207v-113,0,-205,89,-205,201v0,115,91,211,205,211v115,0,213,-91,213,-205","w":1265},"7":{"d":"588,0r-426,0r559,-1190r-588,0r0,-326r987,0r0,297","w":1265},"8":{"d":"1185,-451v0,274,-269,480,-551,480v-283,0,-555,-206,-555,-480v0,-187,79,-315,238,-383v-99,-75,-148,-169,-148,-284v0,-247,211,-426,463,-426v249,0,463,178,463,422v0,115,-49,211,-148,288v159,67,238,195,238,383xm634,-1231v-94,0,-141,46,-141,139v0,93,46,140,137,140v94,0,141,-48,141,-144v0,-90,-46,-135,-137,-135xm638,-311v86,0,160,-83,160,-172v0,-116,-55,-174,-166,-174v-111,0,-166,57,-166,172v0,116,57,174,172,174","w":1265},"9":{"d":"628,-1544v340,0,608,215,604,569v-2,175,-62,298,-145,420r-377,555r-449,0r334,-459r-4,-4v-97,22,-189,1,-275,-41v-184,-90,-276,-246,-276,-465v0,-327,261,-575,588,-575xm845,-995v0,-116,-93,-209,-209,-209v-114,0,-209,91,-209,203v0,115,94,206,209,206v116,0,209,-87,209,-200","w":1265},":":{"d":"145,-788r0,-349r354,0r0,349r-354,0xm145,0r0,-348r354,0r0,348r-354,0","w":643},";":{"d":"145,-788r0,-349r354,0r0,349r-354,0xm145,147v80,6,164,-2,160,-77r0,-70r-160,0r0,-348r354,0r0,430v2,135,-80,248,-209,248r-145,0r0,-183","w":643},"<":{"d":"94,-360r0,-316r1040,-438r0,358r-696,236r0,4r696,235r0,359","w":1228},"=":{"d":"98,-625r0,-327r1032,0r0,327r-1032,0xm98,-84r0,-328r1032,0r0,328r-1032,0","w":1228},">":{"d":"94,78r0,-359r696,-235r0,-4r-696,-236r0,-358r1040,438r0,316","w":1228},"?":{"d":"100,-997v-27,-325,228,-547,537,-547v208,0,354,83,442,246v69,127,62,276,-9,397v-62,105,-184,189,-262,280v-42,48,-65,95,-69,140r-356,0v7,-216,193,-321,297,-452v37,-47,55,-91,55,-134v0,-85,-40,-127,-119,-127v-111,0,-140,70,-141,197r-375,0xm383,0r0,-348r356,0r0,348r-356,0","w":1212},"@":{"d":"797,-1548v469,0,850,402,688,893v-52,157,-185,329,-365,329v-99,0,-166,-49,-200,-147v-59,98,-141,147,-244,147v-183,0,-315,-173,-315,-362v0,-225,181,-459,399,-459v105,0,173,40,203,121r4,0r16,-96r213,0r-85,498v-11,55,-10,107,50,106v72,-1,130,-125,150,-205v92,-365,-165,-639,-506,-639v-330,0,-614,287,-602,619v13,362,225,589,600,589v153,0,297,-25,432,-75r43,188v-133,48,-295,75,-475,74v-381,-2,-640,-193,-752,-482v-216,-558,206,-1099,746,-1099xm733,-518v121,0,189,-138,189,-270v0,-111,-45,-166,-135,-166v-117,0,-207,135,-207,258v0,119,51,178,153,178","w":1531},"A":{"d":"1114,0r-74,-219r-526,0r-80,219r-416,0r608,-1516r305,0r603,1516r-420,0xm782,-1044r-6,0r-156,518r318,0","k":{"\u010c":36,"y":73,"w":73,"v":112,"u":73,"t":36,"q":36,"f":36,"e":-38,"d":36,"Y":149,"X":112,"W":63,"V":112,"U":73,"T":188,"S":36,"Q":36,"O":36,"G":36,"C":36,"A":73,";":36,":":36,"-":45}},"B":{"d":"1253,-461v0,244,-172,410,-372,445v-216,38,-499,9,-744,16r0,-1516r467,0v235,-4,375,28,485,148v60,66,90,149,90,250v0,137,-59,239,-176,305v167,57,250,175,250,352xm809,-1061v0,-140,-165,-113,-301,-115r0,236r147,0v103,0,154,-40,154,-121xm882,-485v0,-98,-72,-131,-180,-131r-194,0r0,276r192,0v111,1,182,-43,182,-145","w":1325,"k":{"Y":83,"W":36,"V":36,"G":-38,"C":-38,"-":-57}},"C":{"d":"462,-762v0,239,175,451,408,451v165,0,287,-85,364,-256r406,0v-73,329,-379,596,-766,596v-432,0,-799,-358,-799,-789v0,-430,363,-784,795,-784v288,0,510,119,667,356v55,82,89,165,103,248r-406,0v-67,-176,-189,-264,-366,-264v-233,0,-406,206,-406,442","w":1703,"k":{"Y":73,"S":36,"A":36}},"D":{"d":"646,0r-530,0r0,-1516r502,0v335,-1,522,82,669,283v93,129,140,286,140,471v0,508,-260,762,-781,762xm1040,-756v0,-254,-125,-420,-369,-420r-168,0r0,836r166,0v251,0,371,-157,371,-416","w":1519,"k":{"Y":73,"V":36,"A":36}},"E":{"d":"137,0r0,-1516r842,0r0,340r-471,0r0,236r456,0r0,340r-456,0r0,260r471,0r0,340r-842,0","w":1081},"F":{"d":"508,-1176r0,258r440,0r0,340r-440,0r0,578r-371,0r0,-1516r827,0r0,340r-456,0","w":1036,"k":{"\u00be":120,"y":73,"u":92,"r":92,"o":102,"i":73,"e":102,"a":120,"T":-38,"A":112,";":83,":":83,".":253,",":253}},"G":{"d":"458,-764v0,252,171,455,416,455v186,0,323,-94,362,-244r-452,0r0,-309r899,0r2,80v10,455,-355,813,-809,813v-437,0,-805,-360,-805,-795v0,-437,370,-780,811,-780v353,0,686,247,758,536r-434,0v-73,-131,-185,-196,-334,-196v-237,0,-414,200,-414,440","w":1748,"k":{"Y":112,"W":36,"T":36,"A":36,"-":-47}},"H":{"d":"1020,0r0,-606r-496,0r0,606r-387,0r0,-1516r387,0r0,570r496,0r0,-570r387,0r0,1516r-387,0","w":1544,"k":{";":36,":":36}},"I":{"d":"137,0r0,-1516r387,0r0,1516r-387,0","w":661},"J":{"d":"540,-311v97,0,117,-77,117,-193r0,-1012r387,0r-1,1028v-5,135,-34,241,-93,318v-139,180,-388,248,-633,162v-191,-67,-304,-228,-305,-479r412,0v4,100,29,176,116,176","w":1183,"k":{"A":36,"-":36}},"K":{"d":"983,0r-414,-655r-4,0r0,655r-387,0r0,-1516r387,0r0,682r4,0r428,-682r406,0r-502,756r534,760r-452,0","w":1447,"k":{"\u00be":36,"y":112,"u":149,"o":73,"e":36,"a":36,"Y":112,"W":112,"U":73,"T":36,"O":112,"C":112,"A":73,"-":215}},"L":{"d":"147,0r0,-1516r387,0r0,1176r449,0r0,340r-836,0","w":997,"k":{"y":73,"u":36,"Y":149,"W":73,"V":112,"U":36,"T":149,"A":36}},"M":{"d":"1380,0r12,-1135r-4,-4r-323,1139r-256,0r-324,-1139r-4,4r12,1135r-356,0r0,-1516r498,0r301,998r4,0r297,-998r499,0r0,1516r-356,0","w":1873},"N":{"d":"1079,0r-577,-922r-5,2r11,920r-371,0r0,-1516r334,0r586,953r4,-4r-17,-949r371,0r0,1516r-336,0","w":1554},"O":{"d":"1670,-758v0,435,-366,787,-802,787v-423,0,-807,-349,-797,-768v5,-202,57,-364,158,-494v160,-205,371,-311,641,-311v434,0,800,353,800,786xm1283,-756v0,-240,-178,-448,-411,-448v-236,0,-414,203,-414,442v0,244,179,451,418,451v229,0,407,-210,407,-445","w":1742,"k":{"Y":73,"X":73,"V":73,"A":36,".":83,"-":-57,",":83}},"P":{"d":"1278,-1004v0,267,-150,451,-367,506v-95,24,-268,23,-403,23r0,475r-371,0r0,-1516r496,0v201,-2,362,23,467,111v119,100,178,234,178,401xm907,-997v0,-140,-97,-181,-256,-179r-143,0r0,361r157,0v152,1,242,-44,242,-182","w":1302,"k":{"\u00be":120,"u":73,"s":73,"r":36,"o":102,"e":92,"a":120,"A":112,".":301,"-":45,",":301}},"Q":{"d":"868,-1544v428,0,809,351,809,774v0,168,-42,314,-125,438v51,47,117,64,198,51r0,308v-193,19,-361,-23,-452,-115v-127,79,-269,119,-426,119v-428,0,-801,-356,-801,-781v0,-433,363,-794,797,-794xm1290,-776v0,-240,-180,-428,-420,-428v-229,0,-378,172,-410,383v77,-32,124,-51,215,-51v243,0,434,157,563,319v35,-59,52,-134,52,-223xm1044,-348v-114,-149,-297,-302,-545,-217v72,171,195,256,369,256v69,0,128,-13,176,-39","w":1773},"R":{"d":"1270,-993v0,249,-158,447,-377,477r411,516r-442,0r-350,-489r-4,0r0,489r-371,0r0,-1516r479,0v204,-2,357,21,467,109v125,100,187,238,187,414xm899,-971v0,-138,-104,-206,-250,-205r-141,0r0,422r137,0v169,0,254,-72,254,-217","w":1337,"k":{"y":36,"u":36,"o":36,"e":36,"Y":149,"V":36,"T":36,"A":73,";":73,":":73,"-":55}},"S":{"d":"1126,-436v0,301,-216,467,-528,465v-335,-2,-568,-183,-547,-531r385,0v-1,110,55,207,158,207v98,0,147,-48,147,-145v0,-82,-67,-126,-132,-153r-165,-71v-190,-74,-367,-197,-370,-434v-5,-334,413,-540,754,-404v171,68,279,208,286,429r-383,0v-15,-99,-61,-148,-139,-148v-89,0,-133,40,-133,119v0,28,3,50,14,64v71,93,329,171,439,241v119,76,214,190,214,361","w":1173,"k":{"G":-38,"C":-38,"A":73}},"T":{"d":"706,-1176r0,1176r-387,0r0,-1176r-299,0r0,-340r983,0r0,340r-297,0","w":1021,"k":{"\u00be":188,"y":149,"w":149,"u":167,"s":225,"r":36,"o":188,"i":73,"e":188,"c":225,"a":188,"A":188,";":131,":":131,".":225,"-":149,",":225}},"U":{"d":"717,-311v158,0,192,-117,192,-289r0,-916r387,0r0,916v1,230,-41,347,-151,465v-147,158,-418,204,-660,127v-162,-51,-285,-190,-328,-341v-21,-75,-24,-145,-24,-251r0,-916r387,0r0,916v-4,166,44,290,197,289","w":1429,"k":{"A":112}},"V":{"d":"937,0r-399,0r-506,-1516r397,0r305,1063r5,0r307,-1063r399,0","w":1478,"k":{"\u00be":159,"y":112,"u":149,"o":131,"i":73,"e":167,"a":159,"O":36,"A":112,";":178,":":178,".":339,"-":131,",":339}},"W":{"d":"1572,0r-340,0r-227,-981r-4,0r-228,981r-350,0r-391,-1516r393,0r203,986r4,0r223,-986r297,0r219,990r4,0r207,-990r392,0","w":2009,"k":{"\u00be":120,"y":112,"u":131,"r":92,"o":112,"i":112,"e":131,"a":120,"A":73,";":120,":":120,".":292,"-":159,",":292}},"X":{"d":"1093,0r-328,-537r-311,537r-432,0r530,-807r-469,-709r439,0r260,433r252,-433r436,0r-463,717r524,799r-438,0","w":1554,"k":{"e":73,"T":73,"O":73,"C":36,"A":73,"-":178}},"Y":{"d":"858,-551r0,551r-387,0r0,-551r-453,-965r420,0r225,609r227,-609r416,0","w":1325,"k":{"\u00be":188,"u":188,"o":188,"i":112,"e":225,"a":188,"O":73,"C":36,"A":188,";":215,":":215,".":272,"-":282,",":272}},"Z":{"d":"32,0r0,-254r522,-922r-522,0r0,-340r956,0r0,314r-483,862r483,0r0,340r-956,0","w":1021},"[":{"d":"597,-90v0,181,57,265,223,274r0,357v-373,-32,-608,-226,-608,-645r0,-795v-7,-349,154,-525,409,-613v56,-19,123,-28,199,-32r0,356v-165,10,-223,94,-223,275r0,823","w":968},"\\":{"d":"688,205r-541,-1721r377,0r543,1721r-379,0","w":1214},"]":{"d":"147,-1544v373,32,608,225,608,645r0,795v7,347,-153,525,-409,612v-56,19,-123,28,-199,33r0,-357v166,-9,223,-93,223,-274r0,-823v0,-181,-57,-264,-223,-275r0,-356","w":968},"^":{"d":"772,-768r-156,-457r-4,0r-157,457r-367,0r356,-748r340,0r357,748r-369,0","w":1228},"_":{"d":"0,256r0,-102r1024,0r0,102r-1024,0","w":1024},"`":{"d":"499,-1333v-80,-5,-163,1,-159,78r0,69r159,0r0,348r-356,0r0,-430v-2,-135,80,-248,209,-248r147,0r0,183","w":643},"a":{"d":"640,-1176v149,2,277,63,332,160r4,0r0,-121r340,0r0,1137r-340,0r0,-123r-4,0v-49,99,-183,162,-332,162v-336,0,-571,-268,-571,-608v0,-333,244,-612,571,-607xm976,-569v0,-163,-124,-289,-286,-289v-160,0,-281,131,-281,293v0,156,129,286,283,286v161,0,284,-128,284,-290","w":1441},"b":{"d":"1351,-575v5,345,-234,614,-574,614v-140,0,-280,-66,-325,-160r-4,0r0,121r-326,0r0,-1516r340,0r0,469v126,-141,373,-165,569,-73v193,91,316,276,320,545xm1011,-569v0,-154,-126,-289,-279,-289v-157,0,-282,129,-282,287v0,161,116,292,276,292v159,0,285,-131,285,-290","w":1419},"c":{"d":"409,-569v0,161,112,288,270,288v111,0,193,-50,246,-151r346,0v-54,257,-295,469,-596,469v-331,0,-608,-277,-608,-608v0,-329,272,-605,600,-605v306,0,555,212,602,478r-344,0v-49,-107,-134,-160,-254,-160v-155,0,-262,132,-262,289","w":1335},"d":{"d":"69,-571v0,-332,237,-605,563,-605v135,0,246,45,334,136r0,-476r340,0r0,1516r-324,0r0,-123r-4,0v-61,103,-178,158,-340,160v-333,5,-569,-270,-569,-608xm984,-573v0,-161,-126,-285,-286,-285v-162,0,-289,123,-289,285v0,165,121,292,285,292v166,0,290,-127,290,-292","w":1429},"e":{"d":"657,-1176v362,0,652,317,592,711r-852,0v21,143,110,215,266,215v81,0,150,-35,207,-106r348,0v-88,213,-283,387,-555,393v-323,7,-602,-280,-602,-602v0,-324,275,-611,596,-611xm917,-694v-28,-130,-114,-195,-258,-195v-144,0,-230,65,-258,195r516,0","w":1323,"k":{"x":36}},"f":{"d":"135,-1137v-20,-313,163,-420,483,-407r0,256v-127,4,-139,22,-143,151r143,0r0,258r-143,0r0,879r-340,0r0,-879r-127,0r0,-258r127,0","w":643,"k":{".":36,",":36}},"g":{"d":"642,-1174v142,0,260,56,314,144r4,0r0,-107r340,0r-1,1096v-8,269,-117,397,-319,484v-178,77,-422,86,-602,13v-146,-58,-263,-182,-289,-350r394,0v33,75,99,113,198,113v196,0,286,-121,277,-344r-4,0v-50,95,-171,160,-312,162v-327,5,-573,-267,-573,-598v0,-336,243,-613,573,-613xm960,-563v0,-165,-115,-293,-277,-293v-150,0,-274,131,-274,283v0,158,116,292,272,292v162,0,279,-121,279,-282","w":1419},"h":{"d":"759,-1176v281,0,416,188,416,484r0,692r-340,0r0,-618v1,-145,-50,-238,-183,-238v-135,0,-191,82,-190,225r0,631r-340,0r0,-1516r340,0r0,484r4,0v50,-91,153,-144,293,-144","w":1294},"i":{"d":"122,-1257r0,-259r340,0r0,259r-340,0xm122,0r0,-1137r340,0r0,1137r-340,0","w":585},"j":{"d":"178,-1257r0,-259r340,0r0,259r-340,0xm12,160v128,8,166,-37,166,-172r0,-1125r340,0r0,1112v-3,331,-98,436,-422,443r-84,0r0,-258","w":657},"k":{"d":"770,-637r416,637r-385,0r-322,-547r-4,0r0,547r-340,0r0,-1516r340,0r0,791r4,0r315,-412r404,0","w":1210,"k":{"\u00be":36,"y":36,"u":36,"o":73,"e":36,"a":36}},"l":{"d":"122,0r0,-1516r340,0r0,1516r-340,0","w":585},"m":{"d":"444,-1016v56,-101,161,-159,313,-160v145,0,255,68,328,203v85,-135,205,-203,360,-203v216,0,373,141,409,319v10,48,13,108,13,173r0,684r-340,0r0,-604v1,-159,-35,-252,-174,-252v-138,0,-190,87,-189,235r0,621r-340,0r0,-618v1,-143,-41,-238,-170,-238v-142,0,-192,96,-192,252r0,604r-340,0r0,-1137r317,0r0,121r5,0","w":1984},"n":{"d":"753,-1176v268,0,422,167,422,465r0,711r-340,0r0,-621v0,-151,-40,-235,-178,-235v-146,0,-195,83,-195,238r0,618r-340,0r0,-1137r317,0r0,121r5,0v65,-107,168,-160,309,-160","w":1294},"o":{"d":"1294,-569v0,340,-272,604,-613,604v-341,0,-612,-265,-612,-604v0,-340,271,-605,612,-605v341,0,613,264,613,605xm954,-569v0,-154,-121,-287,-273,-287v-151,0,-272,134,-272,287v0,152,121,286,272,286v152,0,273,-134,273,-286","w":1363,"k":{"x":36,"-":-38}},"p":{"d":"1357,-557v0,320,-239,596,-553,596v-141,0,-255,-47,-342,-141r0,481r-340,0r0,-1516r319,0r0,125r7,0v87,-109,205,-164,354,-164v332,0,555,278,555,619xm1017,-567v0,-160,-126,-291,-285,-291v-159,0,-284,131,-284,291v0,157,128,288,284,288v157,0,285,-132,285,-288","w":1427},"q":{"d":"640,-1176v152,2,280,65,336,164r4,0r0,-125r326,0r0,1516r-340,0r0,-496r-4,0v-70,99,-181,151,-344,154v-314,5,-549,-266,-549,-584v0,-348,232,-634,571,-629xm978,-567v0,-162,-126,-291,-286,-291v-163,0,-283,132,-283,297v0,154,133,280,287,280v153,0,282,-133,282,-286","w":1429},"r":{"d":"728,-834v-177,5,-268,47,-268,209r0,625r-340,0r0,-1137r319,0r0,121r5,0v54,-107,149,-160,284,-160r0,342","w":743,"k":{"y":-75,"w":-38,"v":-38,"u":-38,"r":-38,"n":-38,"m":-38,"h":36,"f":-38,".":131,"-":36,",":131}},"s":{"d":"975,-348v3,235,-218,387,-463,387v-254,0,-443,-146,-463,-377r338,0v10,70,53,105,129,105v57,0,119,-35,119,-89v0,-55,-56,-93,-104,-111v-196,-74,-461,-126,-468,-368v-7,-220,212,-375,441,-375v244,0,419,135,436,359r-334,0v-2,-57,-37,-86,-106,-86v-65,0,-97,25,-97,76v0,100,189,124,286,156v154,51,284,138,286,323","w":1021},"t":{"d":"530,-879r0,879r-340,0r0,-879r-168,0r0,-258r168,0r0,-379r340,0r0,379r164,0r0,258r-164,0","w":718},"u":{"d":"458,-508v0,150,42,227,182,227v130,0,195,-77,195,-231r0,-625r340,0r0,1137r-322,0r0,-121r-4,0v-52,106,-141,154,-295,158v-217,6,-375,-135,-419,-309v-11,-43,-17,-105,-17,-185r0,-680r340,0r0,629","w":1298},"v":{"d":"767,0r-325,0r-408,-1137r352,0r217,709r4,0r218,-709r352,0","w":1212,"k":{";":36,":":36,".":196,",":196}},"w":{"d":"1378,0r-315,0r-191,-735r-4,0r-190,735r-316,0r-348,-1137r352,0r170,707r4,0r187,-707r286,0r189,707r4,0r170,-707r350,0","w":1740,"k":{";":36,":":36,".":188,",":188}},"x":{"d":"870,0r-227,-352r-231,352r-410,0r432,-608r-383,-529r408,0r184,299r182,-299r404,0r-383,529r440,608r-416,0","w":1290,"k":{"o":36,"e":36,"c":36}},"y":{"d":"604,379r-360,0r180,-436r-422,-1080r362,0r228,660r4,0r217,-660r360,0","w":1175,"k":{".":178,"-":36,",":178}},"z":{"d":"30,0r0,-233r479,-646r-479,0r0,-258r846,0r0,258r-445,621r445,0r0,258r-846,0","w":909},"{":{"d":"758,150v2,100,43,136,143,134r88,-1r0,258r-262,0v-179,2,-313,-107,-313,-283r0,-434v0,-88,-98,-126,-199,-125r0,-352v103,1,200,-44,199,-138r0,-442v-2,-175,134,-283,313,-283r262,0r0,259r-88,-2v-101,-2,-143,34,-143,135r0,428v0,132,-74,204,-221,215r0,8v118,5,221,72,221,188r0,435","w":1134},"|":{"d":"380,205r0,-1721r375,0r0,1721r-375,0","w":1136},"}":{"d":"720,-791v-1,93,97,139,199,138r0,352v-100,-1,-200,37,-199,125r0,434v2,176,-134,283,-313,283r-262,0r0,-258r88,1v101,2,143,-34,143,-134r0,-435v-1,-115,103,-183,222,-188r0,-8v-148,-11,-222,-83,-222,-215r0,-428v-2,-101,-42,-137,-143,-135r-88,2r0,-259r262,0v179,-2,313,108,313,283r0,442","w":1134},"~":{"d":"137,-586v66,-134,193,-216,377,-160v117,36,301,194,426,69v26,-26,55,-64,78,-95r73,323v-58,83,-135,181,-260,181v-173,0,-267,-145,-444,-140v-90,3,-136,67,-176,142","w":1228},"\u00a8":{"w":1024},"\u00a9":{"d":"1603,-758v0,421,-363,787,-783,787v-421,0,-784,-366,-784,-787v0,-423,364,-786,788,-786v417,0,779,369,779,786xm1433,-758v0,-334,-279,-628,-611,-628v-336,0,-616,291,-616,628v0,333,282,629,614,629v335,0,613,-293,613,-629xm853,-1202v179,-2,321,80,320,246v0,97,-47,168,-142,211v111,38,127,153,131,300v1,47,10,86,21,115r-211,0v-14,-24,-23,-134,-26,-187v-7,-97,-56,-150,-158,-149r-86,0r0,336r-217,0r0,-872r368,0xm818,-1053r-116,0r0,246r112,0v95,0,142,-44,142,-133v0,-75,-46,-113,-138,-113","w":1638},"\u00ae":{"d":"1603,-758v0,421,-363,787,-783,787v-421,0,-784,-366,-784,-787v0,-423,364,-786,788,-786v417,0,779,369,779,786xm1433,-758v0,-334,-279,-628,-611,-628v-336,0,-616,291,-616,628v0,333,282,629,614,629v335,0,613,-293,613,-629xm853,-1202v179,-2,321,80,320,246v0,97,-47,168,-142,211v111,38,127,153,131,300v1,47,10,86,21,115r-211,0v-14,-24,-23,-134,-26,-187v-7,-97,-56,-150,-158,-149r-86,0r0,336r-217,0r0,-872r368,0xm818,-1053r-116,0r0,246r112,0v95,0,142,-44,142,-133v0,-75,-46,-113,-138,-113","w":1638},"\u00b4":{"w":1024},"\u00b6":{"d":"93,-1086v-1,-215,169,-349,393,-349r443,0r0,70r-127,0r0,1365r-82,0r0,-1365r-166,0r0,1365r-84,0r0,-738v-216,-6,-376,-136,-377,-348","w":1024},"\u00bc":{"w":1298},"\u00bd":{"w":1320},"\u00be":{"w":1288,"k":{"x":36}},"\u00c0":{"d":"1114,0r-74,-219r-526,0r-80,219r-416,0r608,-1516r305,0r603,1516r-420,0xm782,-1044r-6,0r-156,518r318,0xm942,-1589r-506,-221r104,-240r496,262"},"\u00c1":{"d":"1114,0r-74,-219r-526,0r-80,219r-416,0r608,-1516r305,0r603,1516r-420,0xm782,-1044r-6,0r-156,518r318,0xm614,-1589r-96,-201r491,-264r109,242"},"\u1ea2":{"d":"1114,0r-74,-219r-526,0r-80,219r-416,0r608,-1516r305,0r603,1516r-420,0xm782,-1044r-6,0r-156,518r318,0xm811,-2135v166,0,296,158,211,314v-40,72,-144,115,-161,205r-174,0v2,-106,92,-159,145,-221v38,-45,39,-129,-31,-127v-55,2,-69,34,-69,96r-183,0v-13,-158,110,-267,262,-267"},"\u00c3":{"d":"1114,0r-74,-219r-526,0r-80,219r-416,0r608,-1516r305,0r603,1516r-420,0xm782,-1044r-6,0r-156,518r318,0xm362,-1858v94,-58,216,-89,350,-55v118,30,238,60,357,0r123,174v-111,64,-184,90,-312,68v-101,-17,-213,-67,-323,-33r-72,27"},"\u1ea0":{"d":"1114,0r-74,-219r-526,0r-80,219r-416,0r608,-1516r305,0r603,1516r-420,0xm782,-1044r-6,0r-156,518r318,0xm613,491r0,-309r326,0r0,309r-326,0"},"\u00c2":{"d":"1114,0r-74,-219r-526,0r-80,219r-416,0r608,-1516r305,0r603,1516r-420,0xm782,-1044r-6,0r-156,518r318,0xm872,-1649r-94,-118r-94,118r-332,0r319,-340r221,0r308,340r-328,0"},"\u1ea6":{"d":"1114,0r-74,-219r-526,0r-80,219r-416,0r608,-1516r305,0r603,1516r-420,0xm782,-1044r-6,0r-156,518r318,0xm1099,-1950r-506,-221r104,-240r496,262xm872,-1649r-94,-118r-94,118r-332,0r319,-340r221,0r308,340r-328,0"},"\u1ea4":{"d":"1114,0r-74,-219r-526,0r-80,219r-416,0r608,-1516r305,0r603,1516r-420,0xm782,-1044r-6,0r-156,518r318,0xm1115,-1849r-96,-201r491,-264r109,242xm872,-1649r-94,-118r-94,118r-332,0r319,-340r221,0r308,340r-328,0"},"\u1ea8":{"d":"1114,0r-74,-219r-526,0r-80,219r-416,0r608,-1516r305,0r603,1516r-420,0xm782,-1044r-6,0r-156,518r318,0xm1108,-2460v166,0,296,158,211,314v-40,72,-144,115,-161,205r-174,0v2,-106,92,-159,145,-221v38,-45,39,-129,-31,-127v-55,2,-69,34,-69,96r-183,0v-13,-158,110,-267,262,-267xm872,-1649r-94,-118r-94,118r-332,0r319,-340r221,0r308,340r-328,0"},"\u1eaa":{"d":"1114,0r-74,-219r-526,0r-80,219r-416,0r608,-1516r305,0r603,1516r-420,0xm782,-1044r-6,0r-156,518r318,0xm417,-2238v94,-58,216,-89,350,-55v118,30,238,60,357,0r123,174v-111,64,-184,90,-312,68v-101,-17,-213,-67,-323,-33r-72,27xm872,-1649r-94,-118r-94,118r-332,0r319,-340r221,0r308,340r-328,0"},"\u1eac":{"d":"1114,0r-74,-219r-526,0r-80,219r-416,0r608,-1516r305,0r603,1516r-420,0xm782,-1044r-6,0r-156,518r318,0xm613,491r0,-309r326,0r0,309r-326,0xm872,-1649r-94,-118r-94,118r-332,0r319,-340r221,0r308,340r-328,0"},"\u0102":{"d":"1114,0r-74,-219r-526,0r-80,219r-416,0r608,-1516r305,0r603,1516r-420,0xm782,-1044r-6,0r-156,518r318,0xm786,-1855v85,0,148,-23,180,-72r232,0v-11,199,-196,295,-422,295v-230,0,-409,-95,-422,-295r231,0v49,55,95,72,201,72"},"\u1eb0":{"d":"1114,0r-74,-219r-526,0r-80,219r-416,0r608,-1516r305,0r603,1516r-420,0xm782,-1044r-6,0r-156,518r318,0xm877,-1950r-506,-221r104,-240r496,262xm786,-1855v85,0,148,-23,181,-72r231,0v-11,199,-195,295,-422,295v-230,0,-408,-96,-422,-295r232,0v47,56,96,72,200,72"},"\u1eae":{"d":"1114,0r-74,-219r-526,0r-80,219r-416,0r608,-1516r305,0r603,1516r-420,0xm782,-1044r-6,0r-156,518r318,0xm734,-1924r-96,-201r491,-264r109,242xm786,-1855v85,0,148,-23,181,-72r231,0v-11,199,-195,295,-422,295v-230,0,-408,-96,-422,-295r232,0v47,56,96,72,200,72"},"\u1eb2":{"d":"1114,0r-74,-219r-526,0r-80,219r-416,0r608,-1516r305,0r603,1516r-420,0xm782,-1044r-6,0r-156,518r318,0xm821,-2460v166,0,296,158,211,314v-40,72,-144,115,-161,205r-174,0v2,-106,92,-159,145,-221v38,-45,39,-129,-31,-127v-55,2,-69,34,-69,96r-183,0v-13,-158,110,-267,262,-267xm786,-1855v85,0,148,-23,181,-72r231,0v-11,199,-195,295,-422,295v-230,0,-408,-96,-422,-295r232,0v47,56,96,72,200,72"},"\u1eb4":{"d":"1114,0r-74,-219r-526,0r-80,219r-416,0r608,-1516r305,0r603,1516r-420,0xm782,-1044r-6,0r-156,518r318,0xm417,-2238v94,-58,216,-89,350,-55v118,30,238,60,357,0r123,174v-111,64,-184,90,-312,68v-101,-17,-213,-67,-323,-33r-72,27xm786,-1855v85,0,148,-23,181,-72r231,0v-11,199,-195,295,-422,295v-230,0,-408,-96,-422,-295r232,0v47,56,96,72,200,72"},"\u1eb6":{"d":"1114,0r-74,-219r-526,0r-80,219r-416,0r608,-1516r305,0r603,1516r-420,0xm782,-1044r-6,0r-156,518r318,0xm613,491r0,-309r326,0r0,309r-326,0xm786,-1855v85,0,148,-23,181,-72r231,0v-11,199,-195,295,-422,295v-230,0,-408,-96,-422,-295r232,0v47,56,96,72,200,72"},"\u00c8":{"d":"137,0r0,-1516r842,0r0,340r-471,0r0,236r456,0r0,340r-456,0r0,260r471,0r0,340r-842,0xm706,-1589r-506,-221r105,-240r496,262","w":1081},"\u00c9":{"d":"137,0r0,-1516r842,0r0,340r-471,0r0,236r456,0r0,340r-456,0r0,260r471,0r0,340r-842,0xm379,-1589r-97,-201r492,-264r108,242","w":1081},"\u1eba":{"d":"137,0r0,-1516r842,0r0,340r-471,0r0,236r456,0r0,340r-456,0r0,260r471,0r0,340r-842,0xm587,-2135v167,0,296,158,212,314v-39,73,-144,116,-162,205r-174,0v4,-105,93,-159,146,-221v38,-45,37,-129,-32,-127v-54,2,-68,34,-69,96r-183,0v-13,-158,111,-267,262,-267","w":1081},"\u1ebc":{"d":"137,0r0,-1516r842,0r0,340r-471,0r0,236r456,0r0,340r-456,0r0,260r471,0r0,340r-842,0xm139,-1858v94,-58,216,-89,350,-55v117,30,239,60,356,0r123,174v-110,65,-183,90,-312,68v-101,-17,-212,-67,-322,-33r-72,27","w":1081},"\u1eb8":{"d":"137,0r0,-1516r842,0r0,340r-471,0r0,236r456,0r0,340r-456,0r0,260r471,0r0,340r-842,0xm395,491r0,-309r326,0r0,309r-326,0","w":1081},"\u00ca":{"d":"136,0r0,-1516r842,0r0,340r-471,0r0,236r457,0r0,340r-457,0r0,260r471,0r0,340r-842,0xm646,-1649r-94,-118r-94,118r-332,0r319,-340r222,0r307,340r-328,0","w":1081},"\u1ec0":{"d":"137,0r0,-1516r842,0r0,340r-471,0r0,236r457,0r0,340r-457,0r0,260r471,0r0,340r-842,0xm902,-1960r-506,-221r104,-240r496,262xm647,-1649r-94,-118r-94,118r-332,0r319,-340r222,0r307,340r-328,0","w":1081},"\u1ebe":{"d":"137,0r0,-1516r842,0r0,340r-471,0r0,236r457,0r0,340r-457,0r0,260r471,0r0,340r-842,0xm926,-1821r-96,-201r491,-264r109,242xm647,-1649r-94,-118r-94,118r-332,0r319,-340r222,0r307,340r-328,0","w":1081},"\u1ec2":{"d":"137,0r0,-1516r842,0r0,340r-471,0r0,236r457,0r0,340r-457,0r0,260r471,0r0,340r-842,0xm904,-2451v166,0,296,158,211,314v-39,72,-144,115,-161,205r-174,0v4,-105,92,-159,145,-221v38,-45,39,-129,-31,-127v-54,2,-68,34,-69,96r-183,0v-13,-158,110,-267,262,-267xm647,-1649r-94,-118r-94,118r-332,0r319,-340r222,0r307,340r-328,0","w":1081},"\u1ec4":{"d":"137,0r0,-1516r842,0r0,340r-471,0r0,236r457,0r0,340r-457,0r0,260r471,0r0,340r-842,0xm232,-2229v94,-58,215,-89,350,-55v118,30,240,60,357,0r123,174v-111,64,-184,90,-312,68v-101,-17,-213,-67,-323,-33r-72,27xm647,-1649r-94,-118r-94,118r-332,0r319,-340r222,0r307,340r-328,0","w":1081},"\u1ec6":{"d":"137,0r0,-1516r842,0r0,340r-471,0r0,236r457,0r0,340r-457,0r0,260r471,0r0,340r-842,0xm396,491r0,-309r325,0r0,309r-325,0xm647,-1649r-94,-118r-94,118r-332,0r319,-340r222,0r307,340r-328,0","w":1081},"\u00cc":{"d":"138,0r0,-1516r387,0r0,1516r-387,0xm445,-1589r-506,-221r104,-240r496,262","w":661},"\u00cd":{"d":"136,0r0,-1516r387,0r0,1516r-387,0xm218,-1589r-96,-201r492,-264r108,242","w":661},"\u1ec8":{"d":"138,0r0,-1516r387,0r0,1516r-387,0xm364,-2135v166,0,296,158,212,314v-39,72,-144,115,-162,205r-174,0v4,-105,92,-159,145,-221v38,-45,39,-129,-31,-127v-54,2,-68,34,-69,96r-183,0v-13,-158,110,-267,262,-267","w":661},"\u0128":{"d":"137,0r0,-1516r387,0r0,1516r-387,0xm-65,-1858v94,-58,216,-89,350,-55v118,30,238,60,357,0r122,174v-110,65,-183,90,-312,68v-101,-17,-212,-67,-322,-33r-72,27","w":661},"\u1eca":{"d":"137,0r0,-1516r387,0r0,1516r-387,0xm168,491r0,-309r325,0r0,309r-325,0","w":661},"\u00d2":{"d":"1670,-758v0,435,-366,787,-802,787v-423,0,-807,-349,-797,-768v5,-202,57,-364,158,-494v160,-205,371,-311,641,-311v434,0,800,353,800,786xm1283,-756v0,-240,-178,-448,-411,-448v-236,0,-414,203,-414,442v0,244,179,451,418,451v229,0,407,-210,407,-445xm1036,-1589r-506,-221r104,-240r496,262","w":1742},"\u00d3":{"d":"1670,-758v0,435,-366,787,-802,787v-423,0,-807,-349,-797,-768v5,-202,57,-364,158,-494v160,-205,371,-311,641,-311v434,0,800,353,800,786xm1283,-756v0,-240,-178,-448,-411,-448v-236,0,-414,203,-414,442v0,244,179,451,418,451v229,0,407,-210,407,-445xm708,-1589r-96,-201r491,-264r109,242","w":1742},"\u1ece":{"d":"1670,-758v0,435,-366,787,-802,787v-423,0,-807,-349,-797,-768v5,-202,57,-364,158,-494v160,-205,371,-311,641,-311v434,0,800,353,800,786xm1283,-756v0,-240,-178,-448,-411,-448v-236,0,-414,203,-414,442v0,244,179,451,418,451v229,0,407,-210,407,-445xm882,-2135v167,0,296,158,212,314v-39,72,-144,116,-162,205r-174,0v4,-105,93,-159,146,-221v38,-44,37,-129,-32,-127v-54,2,-68,34,-69,96r-183,0v-13,-158,111,-267,262,-267","w":1742},"\u00d5":{"d":"1670,-758v0,435,-366,787,-802,787v-423,0,-807,-349,-797,-768v5,-202,57,-364,158,-494v160,-205,371,-311,641,-311v434,0,800,353,800,786xm1283,-756v0,-240,-178,-448,-411,-448v-236,0,-414,203,-414,442v0,244,179,451,418,451v229,0,407,-210,407,-445xm456,-1858v94,-58,216,-89,350,-55v118,30,238,60,357,0r122,174v-110,65,-183,90,-312,68v-101,-17,-212,-67,-322,-33r-72,27","w":1742},"\u1ecc":{"d":"1670,-758v0,435,-366,787,-802,787v-423,0,-807,-349,-797,-768v5,-202,57,-364,158,-494v160,-205,371,-311,641,-311v434,0,800,353,800,786xm1283,-756v0,-240,-178,-448,-411,-448v-236,0,-414,203,-414,442v0,244,179,451,418,451v229,0,407,-210,407,-445xm708,491r0,-309r326,0r0,309r-326,0","w":1742},"\u00d4":{"d":"1670,-758v0,435,-366,787,-802,787v-423,0,-807,-349,-797,-768v5,-202,57,-364,158,-494v160,-205,371,-311,641,-311v434,0,800,353,800,786xm1283,-756v0,-240,-178,-448,-411,-448v-236,0,-414,203,-414,442v0,244,179,451,418,451v229,0,407,-210,407,-445xm966,-1649r-94,-118r-94,118r-332,0r319,-340r221,0r308,340r-328,0","w":1742},"\u1ed2":{"d":"1670,-758v0,435,-366,787,-802,787v-423,0,-807,-349,-797,-768v5,-202,57,-364,158,-494v160,-205,371,-311,641,-311v434,0,800,353,800,786xm1283,-756v0,-240,-178,-448,-411,-448v-236,0,-414,203,-414,442v0,244,179,451,418,451v229,0,407,-210,407,-445xm1222,-1960r-506,-221r104,-240r496,262xm966,-1649r-94,-118r-94,118r-332,0r319,-340r221,0r308,340r-328,0","w":1742},"\u1ed0":{"d":"1670,-758v0,435,-366,787,-802,787v-423,0,-807,-349,-797,-768v5,-202,57,-364,158,-494v160,-205,371,-311,641,-311v434,0,800,353,800,786xm1283,-756v0,-240,-178,-448,-411,-448v-236,0,-414,203,-414,442v0,244,179,451,418,451v229,0,407,-210,407,-445xm1227,-1821r-96,-201r491,-264r109,242xm966,-1649r-94,-118r-94,118r-332,0r319,-340r221,0r308,340r-328,0","w":1742},"\u1ed4":{"d":"1670,-758v0,435,-366,787,-802,787v-423,0,-807,-349,-797,-768v5,-202,57,-364,158,-494v160,-205,371,-311,641,-311v434,0,800,353,800,786xm1283,-756v0,-240,-178,-448,-411,-448v-236,0,-414,203,-414,442v0,244,179,451,418,451v229,0,407,-210,407,-445xm1233,-2459v167,0,296,158,212,314v-39,72,-144,116,-162,205r-174,0v4,-105,93,-159,146,-221v38,-44,37,-129,-32,-127v-54,2,-68,34,-69,96r-183,0v-13,-158,111,-267,262,-267xm966,-1649r-94,-118r-94,118r-332,0r319,-340r221,0r308,340r-328,0","w":1742},"\u1ed6":{"d":"1670,-758v0,435,-366,787,-802,787v-423,0,-807,-349,-797,-768v5,-202,57,-364,158,-494v160,-205,371,-311,641,-311v434,0,800,353,800,786xm1283,-756v0,-240,-178,-448,-411,-448v-236,0,-414,203,-414,442v0,244,179,451,418,451v229,0,407,-210,407,-445xm558,-2210v94,-58,216,-89,350,-55v118,30,238,60,357,0r122,174v-110,65,-183,90,-312,68v-101,-17,-212,-67,-322,-33r-72,27xm966,-1649r-94,-118r-94,118r-332,0r319,-340r221,0r308,340r-328,0","w":1742},"\u1ed8":{"d":"1670,-758v0,435,-366,787,-802,787v-423,0,-807,-349,-797,-768v5,-202,57,-364,158,-494v160,-205,371,-311,641,-311v434,0,800,353,800,786xm1283,-756v0,-240,-178,-448,-411,-448v-236,0,-414,203,-414,442v0,244,179,451,418,451v229,0,407,-210,407,-445xm708,491r0,-309r326,0r0,309r-326,0xm966,-1649r-94,-118r-94,118r-332,0r319,-340r221,0r308,340r-328,0","w":1742},"\u00d9":{"d":"717,-311v158,0,192,-117,192,-289r0,-916r387,0r0,916v1,230,-41,347,-151,465v-147,158,-418,204,-660,127v-162,-51,-285,-190,-328,-341v-21,-75,-24,-145,-24,-251r0,-916r387,0r0,916v-4,166,44,290,197,289xm809,-1589r-506,-221r104,-240r496,262","w":1429},"\u00da":{"d":"717,-311v158,0,192,-117,192,-289r0,-916r387,0r0,916v1,230,-41,347,-151,465v-147,158,-418,204,-660,127v-162,-51,-285,-190,-328,-341v-21,-75,-24,-145,-24,-251r0,-916r387,0r0,916v-4,166,44,290,197,289xm625,-1589r-97,-201r492,-264r108,242","w":1429},"\u1ee6":{"d":"717,-311v158,0,192,-117,192,-289r0,-916r387,0r0,916v1,230,-41,347,-151,465v-147,158,-418,204,-660,127v-162,-51,-285,-190,-328,-341v-21,-75,-24,-145,-24,-251r0,-916r387,0r0,916v-4,166,44,290,197,289xm745,-2135v166,0,296,158,211,314v-39,72,-144,115,-161,205r-174,0v3,-104,92,-159,145,-221v38,-45,39,-129,-31,-127v-54,2,-68,34,-69,96r-183,0v-13,-158,110,-267,262,-267","w":1429},"\u0168":{"d":"717,-311v158,0,192,-117,192,-289r0,-916r387,0r0,916v1,230,-41,347,-151,465v-147,158,-418,204,-660,127v-162,-51,-285,-190,-328,-341v-21,-75,-24,-145,-24,-251r0,-916r387,0r0,916v-4,166,44,290,197,289xm281,-1858v94,-58,215,-89,350,-55v117,30,239,60,356,0r123,174v-111,65,-184,90,-312,68v-100,-17,-213,-67,-322,-33r-73,27","w":1429},"\u1ee4":{"d":"717,-311v158,0,192,-117,192,-289r0,-916r387,0r0,916v1,230,-41,347,-151,465v-147,158,-418,204,-660,127v-162,-51,-285,-190,-328,-341v-21,-75,-24,-145,-24,-251r0,-916r387,0r0,916v-4,166,44,290,197,289xm552,491r0,-309r325,0r0,309r-325,0","w":1429},"\u01af":{"d":"717,-311v158,0,192,-117,192,-289r0,-916r387,0r0,916v1,230,-41,347,-151,465v-147,158,-418,204,-660,127v-162,-51,-285,-190,-328,-341v-21,-75,-24,-145,-24,-251r0,-916r387,0r0,916v-4,166,44,290,197,289xm1257,-1768r229,0r0,235v-18,212,-162,306,-379,307r7,-144v111,12,232,-73,223,-170r-80,0r0,-228","w":1429},"\u1eea":{"d":"809,-1589r-506,-221r105,-240r495,262xm1486,-1533v-11,146,-84,230,-190,276r0,657v1,230,-41,347,-151,465v-147,158,-417,204,-660,127v-162,-51,-285,-190,-328,-341v-21,-76,-24,-146,-24,-251r0,-916r387,0r0,916v-4,166,44,290,197,289v158,0,192,-117,192,-289r0,-916r387,0r0,81v27,-29,41,-64,41,-105r-80,0r0,-228r229,0r0,235","w":1429},"\u1ee8":{"d":"625,-1589r-97,-201r492,-264r108,242xm1486,-1533v-11,146,-84,230,-190,276r0,657v1,230,-41,347,-151,465v-147,158,-417,204,-660,127v-162,-51,-285,-190,-328,-341v-21,-76,-24,-146,-24,-251r0,-916r387,0r0,916v-4,166,44,290,197,289v158,0,192,-117,192,-289r0,-916r387,0r0,81v27,-29,41,-64,41,-105r-80,0r0,-228r229,0r0,235","w":1429},"\u1eec":{"d":"745,-2135v166,0,296,158,212,314v-39,72,-144,115,-162,205r-174,0v4,-105,92,-159,145,-221v38,-45,39,-129,-31,-127v-54,2,-68,34,-69,96r-183,0v-13,-158,110,-267,262,-267xm1486,-1533v-11,146,-84,230,-190,276r0,657v1,230,-41,347,-151,465v-147,158,-417,204,-660,127v-162,-51,-285,-190,-328,-341v-21,-76,-24,-146,-24,-251r0,-916r387,0r0,916v-4,166,44,290,197,289v158,0,192,-117,192,-289r0,-916r387,0r0,81v27,-29,41,-64,41,-105r-80,0r0,-228r229,0r0,235","w":1429},"\u1eee":{"d":"281,-1858v94,-58,215,-89,350,-55v117,30,239,60,356,0r123,174v-110,65,-183,90,-312,68v-100,-17,-213,-67,-322,-33r-72,27xm1486,-1533v-11,146,-84,230,-190,276r0,657v1,230,-41,347,-151,465v-147,158,-417,204,-660,127v-162,-51,-285,-190,-328,-341v-21,-76,-24,-146,-24,-251r0,-916r387,0r0,